{"W1": [[-0.09654629542648253, 0.04313542327323329, 0.22747329471377867, -0.18685791690680711, 0.3516769351084039, -0.11117816255394768, 0.036540950444868915, -0.14385866444450876, -0.13259770307485066, 0.08478696786814845, -0.17199663000119542, 0.17151226979366047, -0.37827265279489625, -0.09600558188040077, -0.12828108353518963, -0.3426687706879113, -0.3171769967165831, 0.042872190253380064, -0.025651754028285876, -0.34133127411043007, -0.468067239056496, 0.19480844924606305, -0.35287087421497404, -0.13932033081353973, 0.251728867604648, -0.15494883841101925, -0.070375318344936, 0.15604417542148388, 0.1829435886393177, -0.4423240867378627], [0.120770420171886, -0.35317534288765984, -0.1372690328269113, -0.0374311250813208, -0.1465140747681733, -0.22542144253556134, 0.39661547590938495, -0.24261463485554263, 0.23546814564991053, 0.2667684339623731, 0.3429033167231589, 0.9607355778572693, 0.4985911310412483, 0.37099158875088634, 0.08727977505739552, 0.10594278964083703, 0.3584880446226763, 0.21800428944345243, 0.2363493826750733, -0.04265426016531888, -0.2951289768077325, 0.22621223786134437, 0.08702137600140651, 0.08792847986239492, -0.15247570330286694, -0.12580206638476296, -0.10545208756584805, 0.12647474133944997, 0.29788980128928216, 0.16655002536590977], [-0.24785719316693045, 0.06069994036699941, -0.035612800273495296, -0.05454579044415901, -0.1677948083882297, 0.011140108960333241, 0.06462204589033148, 0.10038025706726306, 0.09163618374644479, -0.3205318626225784, -0.07584552378662751, -0.04487519151647278, 0.048017753561816, 0.013137320983632567, -0.11575162795277197, 0.034336963933042655, 0.014836737115258142, -0.15249559315506142, -0.1271360978650065, -0.16220446612687203, -0.11555441402388975, -0.013647253354498897, 0.05183251986044425, 0.05288708633551218, -0.20899660304719406, 0.007693552567176926, 0.14548812696967311, 0.12805218081863026, -0.1425343274044875, -0.026981189710273235], [0.10575542329665326, 0.19143267464874453, -0.03698949514456914, -0.044663330586000645, 0.17628068598415628, -0.06428547453871218, 0.25390415869510385, -0.15723632036889415, 0.0006852377194154787, 0.10087410512798133, 0.28333914158596524, 0.16447960043278162, 0.008725573795024625, 0.09938740015789382, 0.03950408990194215, -0.3592938351162916, -0.07406141879667637, -0.4140213461528708, -0.23923098720422872, 0.2839289907302365, -0.1145084998627533, 0.2763873164729714, 0.17254145635438403, 0.01584399851619913, -0.1894444688647956, -0.34630733472832287, 0.07591399674080411, 0.041047668349077214, -0.36546700831793666, -0.1498997152532462], [0.41356047809495233, -0.13293966508600757, 0.10629006286183754, -0.5473268920643342, -0.07668425734706219, 0.019924626903271934, -0.4827884978510434, -0.1869336212380978, 0.42143073450332114, -0.041083825995012736, 0.6365261371978055, -0.003343645645160019, 0.4990323501790354, 0.0262906707827453, 1.0343596407140991, 0.06554490014669272, 0.26529600134756015, 0.31535162692274354, 0.29067454882341737, -0.47376770421227266, 0.4837207450594383, -0.10607408587349228, -0.38097505594502035, -0.08218537126259469, -0.09088385599464205, 0.2666755587146714, -0.11623200644443231, -0.22517831705623198, 0.21345832648677499, -0.31427433992619985], [-0.7911026333489677, 0.06805760990623767, 0.07329088413829112, -0.25113779865264024, -0.28529657920161955, -0.1536570122126365, 0.016489858150424804, -0.1065619336998243, -0.007352786771377501, -0.11958425141402364, 0.30482698214672943, 0.145602442604448, 0.20593451092791523, -0.10820457552372797, 0.2629434844307675, 0.3400730892842381, 0.045195537936326885, 0.3881263068454619, 0.18197350520428443, 0.16948605649747886, 0.189487946935962, -0.47671817215946727, -0.042063105314755496, -0.3794945888447711, 0.41459404961524643, -0.16440173576992298, -0.09258820494636234, 0.06831323474535682, -0.3983421110012994, -0.055135405350289095], [-0.23135839040120607, 0.04046001884579472, 0.07821957591680986, -0.013456968760655106, -0.02691254248541062, 0.07979441516348308, 0.025987944035550343, -0.19818990439944514, 0.07797265557985525, 0.214646813888524, -0.23472115645796776, -0.01116007296044536, -0.08655411984723053, 0.05203720625060904, -0.3337256612751565, 0.08280143951249003, -0.4054635752434732, -0.2334450376051019, -0.1059953805133632, 0.16744569546327168, 0.16807548565701655, 0.2529233267532617, 0.49210985062543977, -0.3182533294780699, -0.0358065072831833, -0.22091702346275413, -0.30120879814523177, -0.12389542382608322, 0.07048323566031957, 0.19419904399398338], [0.6067882799569019, -0.49074964445805447, -0.23837217764056878, 0.1710053534848011, -0.2551165911952707, 0.23015568691799335, -0.23988381060076583, 0.03910709366208663, 0.41184009104355457, -0.3392116085517127, 0.3968989162385836, -0.6259270204882917, 0.3152737422295453, 0.08654136536715877, 1.0808293331129624, -0.0562081250313836, -0.03850478935555573, 0.1353816642885944, -0.14262716151774177, 0.001391908343562582, 0.12223551417878947, 0.3763454573919537, -0.206033169545048, -0.22217153872495385, 0.3536304991468895, -0.0164427951862125, 0.40983287599549656, -0.3046033765188434, -0.2688937408298683, -0.2409359124652396], [0.07324516320811858, -0.06564222591822966, 0.31850857287465634, -0.008839777707729812, 0.07613374303081764, 0.05228933552949233, -0.45619760155429334, 0.31984038833490835, 0.17905925863894862, -0.0841953196722722, 0.14825951689703257, 0.2849356020793955, -0.0032438330798079994, 0.0886073051663838, 0.11438672290604351, -0.1150506717898684, -0.1536450270381055, 0.28017793061859825, 0.7336815328059691, 0.18507291135418363, -0.288449076930455, -0.11036025614346341, -0.04685821993430721, 0.07074364891858516, -0.24259611866048314, -0.11472292578593014, -0.05717069931230431, -0.1697457524639113, -0.1715268208234827, -0.21364522245297662], [0.002988369794170827, 0.35956439285693464, -0.5929090119142579, -0.33536237081454, 0.3895631926819397, -0.08839189288598105, 0.40566075439042665, -0.4503215794389649, 0.5461238636059425, 0.4088240135254066, 0.18493219906713845, 0.08314017513580212, 0.0028579808622107923, -0.19683577812713565, 0.49621026255972056, 0.10351081012626903, 0.2982615924975253, -0.00839698460255403, -0.2673735497436246, 0.028745349164199654, -0.20680781259930914, 0.09522532428228657, -0.03297780821904108, -0.1349913385869585, 0.45873409968328366, 0.5187970243665907, -0.037139924740370964, -0.17533416177126557, 0.049731176947004824, -0.1528125845685461], [0.5096039406277657, -0.008936063358545703, 0.08168938946271109, -0.08036344366731542, -0.15033916821325044, -0.044931360723159494, -0.09385864421497024, 0.14133235296367538, 0.2350028277710368, -0.23069622087024394, 0.1443641169899803, 0.051155437995540204, 0.05431023036549776, 0.23470704475531556, -0.1416846451427693, -0.0013523647567827918, 0.016741128672701052, 0.36681788662365034, -0.06950000223719029, -0.08329904852401969, 0.043231030376507606, -0.012291875790106726, 0.16710977548058525, 0.25284431704577554, 0.022907743174735946, 0.008152341213857993, 0.024671923500138315, -0.21259023996002147, 0.033560935046261835, -0.16661192751322917], [-0.1751134233577173, -0.5651109432570555, 0.2820962424092733, 0.2002115538838179, -0.07257212578593024, 0.08931555156593417, 0.4020308320759198, 0.03361503232408134, 0.37066287751948573, -0.4569622900177708, 0.3048232855213872, -0.5388211537038206, 0.1469589424992128, 0.02450807900922154, 0.21960215312912604, -0.11492489606852514, 0.15390655139477705, 0.3986204547184382, -0.24084493963579157, -0.14283575222355477, 0.04138256861685232, 0.24812336657542952, 0.06726874129767901, -0.07790701540817921, 0.01703674624084049, 0.07836758093593522, 0.038706322691069085, 0.19652178762937378, -0.27681344128175134, 0.09520704975565533], [0.09780120829986974, -0.28469249261000634, -0.1680619380636321, -0.01686364042233495, -0.7227136636340786, -0.1792947308848766, 0.2887993187789216, -0.16856371156727895, 0.32825522112585637, 0.4553952659396955, 0.021806265115696655, -0.15142001767491725, 0.21286574064908093, -0.07589053160073578, 0.761415815912607, -0.19908090386164246, 0.20999923949987234, -0.13312316756292844, -0.25158573165885173, -0.16567226734382925, 0.19329807957247064, 0.08452819515274619, -0.2697178672951745, -0.6858407842834237, -0.13096185720762538, 0.15310767899346248, 0.3464371779184484, -0.12845188664756563, 0.014662309370237818, 0.07297229588273003], [-0.14181852608557252, -0.07514013930644566, 0.12728171734531893, -0.03434533292331887, 0.38419828400550665, 0.030875353504990294, 0.04330538420560352, -0.1067763163536706, -0.009620156562777243, -0.021081074796883818, -0.09697547604889112, 0.14971809733245448, -0.06406249056042242, -0.1831337893233597, -0.3240464634354343, 0.14027222038915887, -0.030403589556371725, -0.1384839603076502, 0.12982951840856966, 0.026493648282220537, 0.08538303127754257, 0.08030384480808668, 0.15249237557510584, 0.17470211689959483, 0.1796312684366873, 0.1576391201025946, 0.35272086578140865, -0.061115157838117565, 0.32738741920347725, 0.04477829003583199], [-0.20697992926853803, -0.2917905416427372, 0.2563448648299338, 0.10330537564582734, -0.22256746046315595, 0.1432975493858256, -0.24523707691216615, 0.3397199540628646, -0.2504438036097552, 0.014014827245567798, 0.05988432905215365, -0.248345963861064, 0.2721570014371855, -0.04571732032919977, 0.4436640054977976, -0.548675320389631, -0.045865454907465575, 0.22720152480930478, -0.0849795110621427, 0.26933344979791995, 0.3460188587569215, 0.13327080128853425, -0.1429418028259657, 0.046319635705890524, -0.0919288050050701, 0.048080021717279584, 0.12036185867776222, -0.12227035499513876, 0.06420882900584825, -0.05559276949183228], [0.06202420298917212, 0.15884194170323981, -0.12710718290151418, -0.13532427221497953, -0.05588029455971757, -0.13819167644732588, 0.12978889385648065, -0.41073061413374445, 0.09128106719368202, -0.26886461865443934, -0.05547235050503706, -0.057510046906443554, -0.06095487033880486, -0.024419449740831854, -0.004898029780697712, -0.19809405740159458, -0.08859786272838256, -0.28232728057393974, -0.40800301917570353, 0.19185099508641024, 0.16824182588082293, 0.018660329321292867, 0.13221550801746781, -0.30272148804097776, -0.1872866966066382, 0.12728898659184282, 0.34403747757410985, 0.04757257450783087, 0.3415903625002705, -0.30512000354375374], [-0.2265799071275222, 0.010741301956457117, 0.15470591046316035, -0.1489140486033178, -0.04711701300269475, 0.21375668081187013, 0.04843719457327901, 0.025022879652260632, -0.13951083091558458, 0.08300455831586667, -0.007784669191821267, -0.020616750346237247, 0.03741200569969553, 0.09484006986417673, 0.07026902117551875, -0.10370535801336314, -0.14662704901620674, -0.0615211191166542, 0.17866903277327026, 0.297053003573997, -0.10551785780986371, -0.00048360718243279684, -0.04178400902393823, -0.29665263631134636, -0.04011447871877319, 0.06711094450869612, 0.1871176919900566, -0.040223469102285185, -0.15097160618806563, 0.0946683015758942], [0.086070885615816, -0.07528598676178058, 0.30754381492922345, 0.30142950130469, 0.2637720827378739, 0.06009915233388704, 0.4107369617212076, 0.11995675541410043, 0.43079826566863183, -0.1578600256618095, 0.09446768116160174, -0.441905151138613, -0.273893209910096, -0.07151928843361693, 0.2377477385923438, 0.12541425145261542, 0.13716931192580384, -0.055820418389909844, 0.10795812647430734, 0.27068278136097584, 0.23241053100664366, -0.10420746860201428, -0.5470092871067903, -0.13740486634264, 0.14501889171421034, -0.09619248171911107, 0.04035947648711752, 0.08255029114905144, 0.02284482352639412, -0.1478730218602911], [0.27070014415358556, -0.17055849090469724, -0.4231056869879205, -0.3360736397193295, -0.2772178119257314, -0.12788175202870541, -0.3286963894423709, -0.27205896248925315, -0.02198354848110303, 0.5546211305831489, 0.4827284153357559, 0.12382379617964145, 0.05398821218559566, -0.14285296785381355, 0.12274239447958898, 0.2966341363314585, -0.10933346107976409, 0.07932051093800997, -0.15502125801833205, -0.135624392889675, -0.0834187039841283, -0.11941064073999139, 0.09155451630249457, 0.13281424110367476, -0.20050549432370268, 0.25406537681952784, 0.10909561261492513, -0.2561115340760627, -0.2691916507570049, -0.11852767589107908], [-0.26016912126477226, -0.22812416156882215, -0.2945640318287141, -0.027807025946017097, -0.1756064455365926, 0.061982194684357624, 0.011184557314151808, 0.0018469238222363047, 0.11903051305563155, 0.12998014411126863, -0.16813772469459415, -0.08667300266625912, 0.0566863552910945, 0.32261977142309883, 0.10409201802047897, 0.02076001024789114, 0.047181959622349494, 0.16999675152977864, 0.08893724468904768, -0.06149032282780379, 0.29213354923698587, 0.015440238317855438, 0.6285737942813436, -0.16852411633831402, 0.10581528305641, 0.07567441902478311, -0.204730713125615, 0.0719676358205614, 0.263221414284692, -0.07338683579043218], [-0.03349480521408383, -0.08760951775896095, -0.022328370360002056, 0.21983602847987355, -0.19035016035684957, -0.22490739776095747, -0.2213025935606782, -0.10965701807688755, 0.16683763468421717, -0.07436458772151579, 0.020067626633469313, -0.21818250717767937, 0.24073096588830942, -0.01745585198819103, -0.15451641278916148, -0.08791896530441459, -0.007813728134723313, 0.29285115727221006, -0.15692375665978922, -0.1941747229084922, 0.1274079612915746, -0.06182278428204471, 0.08388536615637322, 0.2644901256984548, -0.12573652975342897, -0.3438273220957889, 0.05212597050150442, 0.14642486302476976, 0.36516361354590404, -0.06171438259125634], [0.2954164245111755, -0.3657709241226066, 0.23147487187148677, 0.2421201586500032, 0.14750578811036483, -0.2673590187224227, 0.22395855693988428, -0.08998801491997258, 0.3407772721144976, 0.32011362559883116, 0.2310112256947653, -0.3000034668470076, 0.1339000439015696, -0.18292111756039853, 0.2371129070572247, -0.25678273902378085, 0.20661815917091234, -0.03676757673336186, 0.05973004948188615, 0.17574383483842387, -0.10310171037317216, 0.17768641320925285, 0.1540799320880298, 0.15420091997016125, -0.21496885182816647, -0.46304520095489093, -0.3090451565838923, 0.10139676792655576, -0.472510597508225, -0.44442945373731524], [0.015780204983859254, -0.004261783371469333, -0.29981221572382116, 0.06359730350268761, -0.37938323493252146, -0.4795235940133731, 0.3559569128288702, -0.23603996864051519, 0.4400962836524035, 0.0635941293661144, 0.1375253707199096, 0.15177591436240628, 0.2567330465409543, -0.043417950023279465, 0.5335590996085856, 0.16153317798293929, 0.09016832240825615, 0.047006445451043946, -0.23238494010262062, -0.10690673141733881, 0.14734399512872318, -0.04119976970238155, -0.3835868463934728, 0.08493313033449552, 0.10511233944400925, -0.26256331844490244, -0.00725688924263066, 0.06115249902103257, 0.1541779798113729, 0.14518601702707815], [0.3879292674232263, 0.10636289965512227, 0.004448800872507991, -0.263487589967935, 0.2761417393951645, 0.1962722307524604, 0.029770812401509385, -0.12327849363237262, 0.0482142504563964, 0.1673694975987209, -0.4318250897732253, -0.013573380616324921, -0.5649865231769008, 0.3619834658319394, -0.6342232305628631, -0.048675559268653586, -0.2909718147126365, 0.012706433646293022, -0.01544022476282012, -0.24015799428360268, -0.18127380318720834, 0.1180123466371706, -0.39274387270436695, -0.23569094184282727, -0.17172461824005278, 0.0407954130883647, -0.02713942606379704, -0.03677700190060121, -0.04975148761680857, 0.18347919713791339]], "b1": [[0.36317332257122936], [-0.6718562613082281], [-0.1413493647230771], [0.30953549707475314], [-1.4358410304176488], [-0.7675420777270989], [0.37978583562247803], [-1.0489222025750504], [-0.34685404866628244], [-0.7120113374301172], [-0.03686006560789508], [-0.7102287684266785], [-0.9403416440563048], [0.2659039470974241], [-0.41223460987395505], [0.40727701507156544], [-0.08971728019027896], [-0.2774031924182086], [-0.6259906113624828], [-0.33439041913147477], [-0.17978648097004182], [-0.49131856268128477], [-0.5543958285960747], [0.6080567977427894]], "W2": [[-0.18151180286317956, 0.25593329618782135, 0.20589727901587554, -0.2091856377263578, 0.008469965573704153, 0.10631185739147753, -0.15887311136801058, 0.10951863839239964, 0.30767499555590466, 0.32218290459296656, 0.0389843366814864, 0.11379781054957011, 0.20789469799110896, 0.05851823371328352, -0.08785495956119135, -0.023335752765927864, 0.10576600827609742, 0.17973471533579913, 0.10510896865944332, 0.039124431923620015, 0.21134575379331913, 0.11599945984304845, 0.12279258305218707, -0.26855171518935156], [-0.16622277686723066, 0.14063829381677667, 0.05042946875517585, -0.35812896731443056, -0.018899828959403238, 0.24966888264394227, -0.040353797927332236, 0.08599408570003325, -0.06749734505088428, 0.1902978073500836, -0.012758237519283547, 0.008406479557471822, 0.25332285576449876, 0.023100736722590477, -0.06544403179683159, -0.18633879147542495, 0.04351397281102449, 0.07659817409085533, 0.08952015282391979, -0.11341275178613981, -0.12648980310834898, 0.2266374413214582, 0.13853841397677702, -0.015310198958194087], [-0.06809837045723864, -0.14786294667089153, -0.1381039986974581, 0.03693162662397133, -0.04766744823766265, 0.1462038331707708, 0.09328257998440723, -0.12322565590421188, 0.06612059853673091, 0.08634165975574191, 0.012874024450197839, -0.021094506293116867, -0.015266894057263345, -0.22157317636470653, 0.030890132333133466, 0.0011605372571888131, -0.032555975040913905, -0.04573668271896746, 0.03478536702418956, -0.03353630049133911, -0.025390838238278656, 0.08290855468894508, 0.010313657224333332, -0.12026740295593], [0.04774650276984635, 0.12055894183153729, -0.08576722979011424, 0.04847473989318849, -0.1363475221471478, -0.06568293134267883, -0.061679495646196264, 0.018402824806989314, -0.06376500304551734, 0.19847412665046582, -0.021358155708291967, 0.09278776169563131, -0.08692886982159242, -0.04464358832412601, 0.10390644627723458, 0.03850449472923942, -0.00978281194714885, 0.2541849561482093, 0.05048002730069673, 0.01148725511409121, 0.16674568644381185, -0.0619805701707646, -0.014626840103355895, 0.018614660882418397], [-0.3639894730456208, 0.3509716448058229, 0.3312392072999946, -0.24156695015940977, 0.012666053021157756, 0.20284088630265248, -0.2982219483670714, 0.249790182903657, 0.24527457780227854, 0.2030990503320187, 0.0012710286070316504, 0.24362083254126965, 0.18141347395572122, -0.1924051737709704, 0.4607597533024593, -0.3537029465677012, 0.26404181339259114, 0.4150115975672599, 0.34220905857419953, 0.22817493610127543, 0.25283514813019176, 0.34775587983941453, 0.17343323454594758, -0.27727953470225575], [0.15686085507731987, 0.17376240334956555, 0.010921064449132524, -0.11001511149572232, 0.21892110740770276, -0.10374214455161009, -0.11033865171851827, 0.20274777611281097, 0.18491623354211037, 0.3128945266266243, 0.33006786457786397, -0.04254242894059613, 0.130077520812637, -0.09325023644003949, -0.04728988271643183, -0.22048285948017285, 0.09097870430243524, 0.21394419827969305, 0.12163508290636903, 0.13478091853741814, -0.17530738178995592, 0.043067951491106024, -0.054946026642966224, -0.16401103959130064], [0.06939081599282268, 0.06524421634782385, 0.0502798494671629, -0.027416724454740807, -0.13785793390065387, -0.08674089123425106, 0.10502104654224467, -0.04452032339978561, 0.09753328415722923, -0.16105335856964953, -0.04344093405185183, -0.13938631079076982, 0.16547975513943847, 0.2067440269066649, -0.08716422123142079, 0.037640719360115656, 0.06012607666325641, -0.004396485551190888, -0.1775324540184514, -0.0458416575958996, 0.10529271735333379, 0.10920094486484754, 0.009285338286546058, -0.10360787357357165], [0.06634199533080476, -0.024608417804718227, 0.011484640297283653, 0.022578648360438876, -0.14775148503662588, -0.08405023376646709, -0.15178558971062314, 0.04262866723060073, -0.01719143703120873, -0.022703739337610326, -0.077768576791071, 0.0512069191214131, -0.12890666090331854, -0.01509320231643683, 0.012119720119260883, -0.046116474199875794, -0.003411224774514825, 0.035321741027876406, -0.055532008458398556, 0.18605410230007663, -0.03882713455059956, -0.0209452887369867, -0.09499821420905354, -0.021001869555984883], [-0.5139604492578032, 0.5149962575173818, 0.1638305436124335, -0.3145500626381885, 0.14568519005262665, 0.20695102048583086, -0.4111609031139546, 0.26581820889727037, 0.4701725966924732, 0.45795015278147594, 0.2414937422328593, 0.18743155485953844, 0.1781888503175994, -0.24400910025633418, 0.2540053287297439, -0.3961560470957991, 0.04976129459892426, 0.39473384680285056, 0.2870168820023484, 0.31405631064450473, 0.4371926585084504, 0.45326065739918464, 0.28458058073715425, -0.47732598506275237], [-0.20995709850919186, -0.2299906231941422, -0.030378950763024666, -0.0883484344114327, 0.10289487577389528, -0.09473801666495205, 0.05038256915388374, -0.060524902308343, 0.05486535274767325, -0.07137185379700438, 0.07490002769230308, 0.1575493333245791, -0.017936048757059887, 0.001822975019411364, 0.011227598019335492, -0.06487564729878957, -0.0025615157380770503, 0.015757390517593953, 0.2318229951322329, 0.08849599907133114, 0.06806964409739723, 0.005999987084873207, -0.10994485832752351, -0.010682634135863584], [-0.5290357108069608, 0.5097208507499374, 0.15289743187290825, -0.3508774517756639, 0.22082308169248752, 0.3860137667170869, -0.40639329691433285, 0.12071935869760174, 0.4789214475554405, 0.4390498413680425, 0.23475800697269145, 0.2529926758000842, 0.30409234478070474, -0.25688234343984717, 0.13919966164331662, -0.3578368462279634, 0.28951290202268015, 0.42767055613666344, 0.3330605672896206, 0.17982982164825909, 0.2787407598653475, 0.3311600740481448, 0.3746720806811511, -0.48414130200929867], [-0.0998289877264167, 0.18594991529854915, 0.0953729342114378, -0.18194031104231545, -0.09050827785224594, -0.13195310556044526, -0.043769148175192, -0.045837998147959934, 0.05064664953119627, 0.08220553524496886, 0.011892868211247161, -0.09591475619538942, -0.21119376497030395, 0.10653230426716782, 0.08157507369054469, -0.15188698135946524, 0.005061024316994533, -0.06267991979837657, -0.03666076784470167, 0.16395942235557506, 0.06352567242805914, 0.012765582969590563, 0.007145364655410605, 0.03616658286783417], [0.16855078173952515, -0.49014991692441773, -0.1789479424170309, 0.5756585323125205, -0.45420059864673884, -0.18811429543299335, 0.5585721866540921, -0.050477928917982515, -0.26800166096978467, -0.29218038579145716, -0.3003909619118883, -0.4227370035065268, -0.2431181338560834, 0.367792940023559, -0.47108164210351305, 0.4592943377590277, -0.12829939784914196, -0.33689028261364107, -0.11251667983070364, -0.18582771541861012, -0.17362939863909058, -0.3030741849214557, -0.09062606298742396, 0.24213679699535465], [-0.11798379832704728, 0.08635277345453357, 0.04919764189999516, -0.1276387690213925, -0.0100280461896505, 0.22230485013253307, 0.022526464700398888, 0.19795699644994447, -0.04789980208943848, 0.012040462452852294, -0.16310203643799706, -0.04416806462261477, 0.089146746679862, -0.015940031834763873, -0.08042065918897254, -0.10675881504657377, -0.03194438679640903, 0.10492376042541744, 0.1275202327941434, -0.04510655490915025, 0.0907282963673252, 0.1133940997530057, 0.19150623327637423, 0.025178543358019587], [-0.03841706152607463, -0.4413434936192663, -0.015841165860846176, 0.18945842554285858, -0.22631028250895224, -0.37319908246293193, 0.360746548509576, 0.16985746543683455, 0.013194204239139208, -0.06978869665896514, 0.04351856582750667, -0.1816226306233134, -0.20822004074819953, 0.27455733010427347, -0.07641686504555482, 0.2685385691716795, 0.012621993701346212, -0.08262935432260592, -0.09591235061888617, -0.40288177428332694, -0.17980174239732774, -0.22686524497966074, 0.10256516439264311, 0.03981066062902298], [0.04319717591375342, -0.05241084435216137, 0.06783096575289516, -0.15763072014503282, -0.0658321884465515, 0.08056904936101682, -0.0591893344578211, -0.14736452922084411, 0.051280847473556095, -0.07973792269762679, 0.08388075353089675, -0.07242669310162216, -0.03824550745400746, 0.006648443334855109, 0.012168454160911573, -0.06677648177210564, -0.10359277048017153, -0.09026282475096176, -0.07840292485424932, 0.21034404036733542, -0.01862904079034803, -0.061047951388773856, -0.03003755069011782, -0.021509113837645113]], "b2": [[-0.0368603818472006], [-0.08211462001590847], [-0.02970601578437222], [0.08857887135029366], [-0.19016207710437769], [-0.045518519940504334], [0.002233419691340221], [-0.029146688321441072], [-0.2586688518133998], [-0.06596534922361061], [-0.22916493078731726], [-0.0473509355622501], [0.8586868359003779], [-0.10003854374792191], [0.43578969893832553], [-0.0004220372845421274]], "W3": [[-0.012758992687523124, -0.036419705649660745, 0.08830294288571827, 0.007150290261274862, -0.05528611369564421, -0.1349286452132672, -0.14837865621963994, 0.0017727233263949036, 0.032445460403358176, 0.03368444512892029, -0.04145551500529107, -0.020776379763731853, 0.15314392638476723, -0.16053661048259432, -0.07389975604455636, 0.012362526385863574], [-0.27964978183442485, -0.021800301156757875, 0.08691082799789851, -0.02131401007448563, -0.4270843617458125, -0.17450089223173076, 0.3724048514567934, -0.042886711567035156, -0.49986194442466436, -0.0022103166381704405, -0.5728350647142674, -0.08628671360451583, 0.8190669643610603, -0.06823563217511831, 0.4022323569240432, 0.13604979537783826], [-0.01783605858165186, -0.10368207396894134, -0.059901866902552864, -0.09863726042325371, 0.06376200281614373, 0.006908395315079485, -0.11381740144835871, -0.05702552648006953, 0.09952684681766746, 0.08486813706439587, -0.09164850547743855, 0.014393883993481708, -0.06275834595095345, -0.0002525976783287432, 0.03999525651449923, -0.0037325421310480805], [-0.008569717055055657, -0.05763290989331431, -0.0853136734848652, -0.10727888391965737, 0.07129801223117609, 0.04107798090219149, -0.05025194469850888, -0.06487595276889833, 0.049522018091872136, -0.06698304886342213, 0.016555185362345744, -0.06528085809057745, -0.07650905432896808, 0.01581204638161936, 0.08722386521625002, 0.14146388097899693], [-0.2062366860321353, -0.12097016795167802, 0.0028812926513934463, 0.17019806405675736, -0.13676232243695466, -0.07150433513500402, 0.007754991601800507, 0.20544686503354906, -0.25375280780550036, -0.02223908514253749, -0.295608529584476, -0.031370492891081535, 0.6487287885220036, -0.07522179055416317, 0.2979901276334878, -0.05976056096683132], [-0.17878595986987977, -0.15224182753308232, 0.06442129229700312, 0.031827289337707815, -0.29148441014606646, -0.28423126407326454, -0.09073911774271823, -0.10266447767283206, -0.20972673651741716, -0.06303452451121429, -0.14520296626207208, -0.024058535703832762, 0.449692031074762, -0.17198423089912596, 0.14560478019569392, 0.010170026643327078], [0.043172857640633194, -0.10087968110741333, -0.003282054548171633, -0.08167301774777914, -0.12812709630664956, -0.1166327230413807, -0.05205520279474535, 0.004677935626425017, -0.24729893613184487, -0.13940035518113617, -0.269621470722582, -0.09248103073552214, 0.4280037610043749, 0.03156913815798111, 0.1581441636627544, 0.030150478947846907], [0.17166827126765757, 0.09411931164899279, 0.010970052526851567, 0.022970858770016558, -0.041089008228320456, 0.03662821330679329, -0.011908293088376867, 0.05258423004615109, 0.12740430445277237, 0.14662366729389764, 0.20700491179548094, -0.0035783486485635196, -0.10863096642863211, 0.11961904845236163, -0.14986375765338358, 0.055022096345189966], [0.300992351892406, 0.2653267676895389, 0.0019936724342012025, 0.31188085062455545, 0.3534936014284645, 0.1099247387997331, -0.026969741044124966, 0.06908118752473526, 0.36650483257040223, 0.0018289951820147437, 0.29044858105446897, -0.11348178480643245, -0.669985483616943, -0.01958777130819025, -0.24321639420514274, -0.09371806300542966], [0.1349948728909379, 0.10655620011857976, 0.01322472766180874, 0.02416102620356755, 0.4067751725459981, 0.2668703264253096, -0.11293216089750882, -0.017019434829802397, 0.5120686060295058, 0.11934220121025155, 0.6208133419938558, -0.06873830510322763, -0.5372732484299712, 0.1564941978736329, -0.643100385694173, -0.098594687747965], [-0.298420725744765, -0.19564688720614384, -0.1378417795243794, 0.16150761631825733, -0.05935543592226971, 0.036856408751649056, 0.004035605154120809, 0.12736708489008378, 0.0847788986669623, -0.06415528903467188, 0.09369201819574784, 0.02770345384289733, 0.11764558237006018, -0.17285454615861243, -0.12900306098547631, -0.06724983881229497], [-0.005403137705752794, -0.09826627127788577, -0.023683347585969877, 0.05080871386605993, -0.03726818690056341, -0.0045438789203991045, 0.13377132513936218, -0.02024754465028791, 0.07544543171155088, -0.11975899969336237, -0.08600562374801994, 0.17383995254640455, 0.005724019574972495, 0.05966909702445698, -0.16071764237141742, -0.08040723945124245]], "b3": [[0.03781417040701373], [0.3809794018692856], [-0.04043180982351111], [0.01890703168406735], [0.166319373434468], [0.2471508057796713], [0.1677059991334661], [0.07971560408254953], [0.2586979846278318], [0.30618555121174457], [-0.03667683574984005], [0.0006773626028641667]], "W4": [[0.09608219158609375, -0.16376298385881502, 0.008799991197328525, 0.14795280371132608, -0.2479237927064941, -0.09809790508337753, -0.07129328025677388, 0.17757754424580302, 0.20287720619953634, 0.21480718397504106, 0.06500110617576291, -0.09905784974088744], [0.04058353571776158, 0.10176853457874935, -0.07813185175521921, -0.16649107965490612, -0.03328303385566244, -0.11694197693396755, 0.022888785227509395, 0.022244847761917944, -0.10935873138664225, -0.18471675420710915, 0.11834577346638783, -0.05775339304205214], [-0.10727956149561652, -0.6322227524755867, -0.1566170738100377, 0.04536644372952886, -0.31196457627847485, -0.43726366527590027, -0.07821227099705716, 0.22989626729034093, 0.4826533248389194, 0.6312318732265962, 0.051552058251620604, -0.07556846203473283], [-0.02391154727943956, -0.6109718831128249, 0.17327544040330012, 0.009639916895631455, -0.36169177084456083, -0.17503570748412237, -0.5061381360394215, 0.1572637364067053, 0.5057447915534267, 0.6464346930982685, -0.029589196775351732, 0.11938984165170062], [0.011623482116501209, -0.451977640070405, -0.03191776987268198, -0.05547681806584471, -0.1769331786847187, -0.13728006778544044, -0.09910180971873257, -0.04146178477886865, 0.13692469463968068, 0.44351195001771065, 0.09158605005746052, 0.132226739576354], [0.11708077906692668, 0.7610914893256443, 0.17688605122936685, -0.04911809367786578, 0.5381373412432225, 0.4830617823124145, 0.3377930698437263, -0.03915987236423202, -0.6504892951641956, -0.6343279962755777, 0.04658452161583066, 0.06276465357845581], [-0.10967954329563818, 0.046370404139721245, 0.05963166627166706, -0.07074333806485456, 0.038063074825627576, -0.01506582763851041, 0.09411333408226312, -0.005077965272936334, -0.030362693186462727, -0.0759327255812313, 0.010962601719128386, -0.07415430617289154], [0.19814037865565415, 0.04973823163056791, 0.027914952459530063, 0.11587921891311007, -0.13217668155398704, 0.03876843643562381, 0.007613871019383959, -0.004801680270037143, -0.10442546789944285, 0.06010505897899137, 0.022482135907851985, -0.033323321930877274]], "b4": [[0.2492898107717463], [-0.042525043208789116], [0.7218571205131525], [0.7793454390251879], [0.46392186359967513], [0.4994927736347282], [-0.06673618264452236], [-0.06648965956799285]], "W5": [[0.07610576302068255, 0.0006700614155690807, 0.028760806754297936, -0.007516319286620664, -0.01237305644595842, -0.13982069456043658, 0.2227467955095729, 7.272102834901493e-05], [0.45845648669509736, 0.03875468855298039, 1.210904380599914, 1.2579232863002376, 0.6765093948400761, -1.4155620269775957, 0.02460163782214743, -0.05494375539135816], [-0.06480586738489423, -0.17871118351857987, -0.12471305474920648, 0.14978922630626387, -0.018663943401011896, -0.015546091852528176, -0.16485640915278546, -0.0968309831021144], [0.07058624157768208, 0.02974812817902152, -0.20267466682455415, 0.17742702665255952, -0.04390297720216392, -0.02219229709726073, 0.014116761855351044, -0.13563608939122304]], "b5": [[0.04634080923596173], [1.7286730204288694], [-0.006076161529831179], [-0.008190239999414768]], "W6": [[-0.04533872988329143, -2.7547322983412066, 0.12827548848144135, -0.11334875659933617]], "b6": [[6.594066232425599]]}