{"W1": [[-0.5192954948307927, -0.30780613585019073, 0.2948874018315729, -0.04268932524170084, -0.3979568849584033, -0.22754439492917802, 0.20579487017129486, 0.022227177838305603, 0.33791319210563237, -0.11529918064342717, 0.23891979867506682, -0.3515345344517604, 0.4119184787239221, 0.14662810515151076, 0.4911427992039993, -0.13191670310716053, 0.22006375841042522, 0.11369487211584597, -0.00916887704834955, -0.13914220771344987, 0.5362484890774012, -0.11483521810498719, -0.05725185793660062, -0.16928309517488938, 0.20795797092733834, -0.5368903863478578, -0.07109635959324975, 0.21664157624725203, 0.15524282964655337, -0.16870292162232503], [0.19820579241141978, -0.1796790756194766, 0.17876114954665143, -0.09586472855172898, -0.09638840798993346, 0.11254645848625293, -0.2759746026850377, -0.00380777575709516, 0.049305562938786525, -0.4076969769180605, 0.24958852971700432, 0.3302768572387074, 0.2982426057776737, 0.1767294080532858, 0.13412965343451025, -0.04712622112907415, 0.1724750613208685, 0.012074566153798101, 0.4348148652287964, -0.011249714590591719, -0.15461829394904836, 0.09539414578685229, 0.15467071853070546, 0.2488509157715871, -0.15546742991564177, -0.38615582577989266, -0.2592257059089574, 0.0041923404779436015, -0.0666373205685563, -0.38069480929116195], [-0.27156451483807587, -0.11271433343400669, -0.13365161269767178, -0.06184259828855969, 0.22000593818638386, -0.12338593638656806, -0.17587209976919016, 0.025795420201584922, 0.061374250734889266, -0.05502794276126421, -0.2723558817333864, 0.16742691737039334, -0.15203283343769147, 0.028346672101237272, -0.2399183831857392, 0.11541739412847686, 0.14888509912620618, -0.08458808557243352, -0.12776758781166803, 0.03221542378243069, 0.14230275857692162, 0.2310331000388638, 0.020436006965313676, 0.030616734246460206, -0.07872396608385682, 0.07337277837264866, 0.08182644702599028, -0.1346476111500204, -0.062119938286456754, -0.009197640332996174], [0.18534465496166705, 0.13721656919769518, 0.09013883155487651, -0.38461421508567395, 0.2574669038750824, 0.10019562218542678, -0.02203007864218555, -0.15515498989298973, -0.12957945602725113, 0.2656056808616425, -0.06826345431196755, 0.10017194495916835, -0.28975288925094256, 0.29691803143214435, -0.09226153267147465, -0.06702979617339945, -0.06554877889628619, -0.14884705299202153, -0.13481257260933371, -0.1917948477301899, 0.10206126641606904, 0.05718248499092118, -0.1369191383059555, -0.1366128985210333, 0.1317460691942538, -0.19581561518981025, -0.09371248570151336, -0.11498044344071304, -0.14755363898892335, 0.06803630588110894], [-0.4097960772305528, -0.1716305820310808, -0.2536385804112884, -0.20510496876477563, -0.4754472982379036, -0.2659912707950354, 0.024456180959949392, -0.3331117124991071, 0.3137455297641184, 0.1521410867199808, 0.3415948400360408, -0.16262339715939655, 0.5991981845558744, 0.21709919878239942, 0.6157849865165717, -0.14012676737527238, 0.005830716876209889, 0.269224184192702, 0.11031467260687346, -0.05593935559695768, 0.2228028075233156, -0.0067743502295369434, -0.19097752864318907, -0.1440356927056672, -0.02234095747710187, 0.10996642669630356, 0.07051248621377323, -0.13918122031311955, -0.19990302260896328, 0.1936678713865629], [-0.19969665938916809, -0.1217790258571644, 0.2857770725772241, -0.14247968763033608, 0.1635699426481812, 0.21106880269326753, -0.4031105959397917, 0.14109278806177505, -0.06445151798217671, 0.17462597128304558, 0.1086456662274292, -0.35610785455801347, 0.021465441462748383, -0.2157076659069647, 0.38835992260390384, -0.1550739243719486, 0.07093821244752199, 0.13087735542912077, 0.2303175511054778, 0.320053125794747, 0.19197438190911909, -0.2331023364063436, 0.2979238679373576, -0.20973775877172068, 0.41243182718304117, 0.39600138056369016, -0.059475254863036904, -0.09420918932358852, -0.12042438858152972, -0.10992162053505904], [-0.23372465269871856, -0.13968812651659565, 0.05902990132107923, -0.06999605005612462, 0.08792975556325097, -0.17029019232106002, -0.09966376596368481, -0.09976794035204549, 0.07640667574481594, 0.011330782832105708, -0.06462519650810893, 0.21576207474403233, -0.14343154226605828, -0.004450516746854949, -0.028324956516744562, 0.029653640092583686, -0.16083774328234096, -0.17382052063062114, -0.049971260663691154, -0.10880671103898854, -0.03500365463204014, -0.13124777272465066, -0.03515941448572933, 0.005134053993489838, 0.11157041291748994, 0.036750947002654806, 0.078667115581984, -0.07953046030888923, -0.054948176491112964, -0.11596055591227505], [-0.13045935606486977, 0.1401423274052284, 0.09673507043839738, 0.21200265474811034, 0.26452415939369156, -0.015368513367651519, 0.1029014153084682, 0.03344390495752344, -0.15383695654981527, 0.09469716097158998, -0.2898428764983048, 0.1000519322698309, -0.27690424348183484, -0.02821401133236352, -0.16712222284864386, -0.1552210375333221, -0.38095091711222073, -0.27686195735729846, 0.0393108247391375, -0.24850735222531878, -0.2581950698602682, 0.12298167347633561, -0.146153037309039, -0.14899416667580737, 0.05509534503416272, -0.18449144127403552, -0.016129816734981175, 0.15618938051674477, -0.06531636950993412, -0.3324709208394551], [0.04799654051767576, -0.07447958018303823, -0.09481115443226884, -0.19304228623336372, 0.2272703007853955, 0.044690523732975745, 0.12168100841895965, 0.03611946323098601, 0.14385047547374008, 0.20546364601653916, 0.19761598755123375, 0.09085358682918195, 0.12379322436959792, 0.09028340729549152, 0.2977807167255462, 0.5778033579650552, 0.02769012775201967, 0.12288478954440635, 0.23246128929782608, -0.03875613124376164, 0.14997441640883682, 0.009216302140363883, -0.15953042408417611, 0.014725323707689827, -0.43364128481539255, 0.051218253036440106, 0.02318716222880753, -0.018449446319431455, -0.061454267764647144, -0.08409812072351219], [0.6724352179345753, -0.13889678745118184, -0.10061496088203373, 0.07918220441676795, -0.22519452387980293, 0.08636528319654195, -0.28105573573241793, -0.08828100581595338, 0.3688491464538118, 0.10277640636074345, 0.2960798902223193, -0.09770087343601544, 0.07707266601725145, -0.1936962075676597, 0.7298589140496886, -0.228756955753563, -0.06490528452230875, -0.018155774360715086, -0.07164809392567996, -0.04481518274872687, 0.2774829407732437, 0.3165786804329166, -0.021873458734478116, 0.18745554140586113, -0.05851595700042908, 0.1527428519053424, -0.2023389500140172, -0.222874000034188, 0.00821067952668107, -0.3189189715115784], [0.053094106310394316, -0.3701213549908039, -0.48396482194082246, 0.24462214581732972, -0.31175957301520907, -0.09648044946410937, 0.2934406881466446, -0.16378991690940345, 0.29246576940557756, 0.20306616551702603, 0.29827443804180853, -0.25469532578973403, 0.2815671578829296, -0.12200746594869098, 0.2377690895514554, -0.36868333490544475, -0.10401247750482594, -0.06278163961309333, -0.08730475499780403, -0.1515026278870961, -0.12816202910362778, 0.034513014410822794, 0.09299671400054663, 0.10376725860928555, -0.2246328920213985, -0.15747115801396436, 0.019749443870581064, -0.005619838518933262, 0.027414942590729692, 0.1446559982472859], [-0.005373929876130818, -0.16404320521240054, 0.03526392640250536, 0.0981923962617768, -0.12900434281655687, -0.08980148710796165, 0.02331586773775294, -0.1702061634092815, -0.08763340522583365, -0.00661517222709319, 0.020089310988325414, 0.012850900730802693, -0.159221156221538, -0.029943048170322055, -0.028805629403929313, -0.03587244225654086, -0.033458511259099835, -0.053834988516700474, 0.018401895831897438, 0.06004371414020018, 0.02273139715415145, 0.03031116865737062, 0.03726756499902137, -0.1414400673182562, -0.10415977104554115, -0.1375546841753762, -0.03341523947152684, 0.015262250033424166, -0.025794444898510495, -0.10689023281864936], [0.17024721938430992, -0.05658527707406186, 0.016016464080129612, -0.04724577308381069, 0.12086347303634831, -0.03892654506155304, 0.010023661628359612, -0.06112394043584655, 0.009986092789591715, 0.011333084231670376, -0.20149358642344034, -0.16474425631967293, -0.17224284002610527, -0.04588259027173739, -0.29270707677845265, -0.1278867934662723, -0.09130912568269048, 0.11870705831559672, -0.009050600657515943, -0.21682768553570328, -0.11507480041886918, 0.02732319999859901, -0.18204489247581407, -0.14892928856936757, 0.029570757933882506, -0.12091711010765982, -0.2376850884222452, -0.02275094890633261, -0.11946775685918543, 0.09022644300402845], [0.038904511807059367, 0.09164441012931313, -0.05459399261911027, 0.04022753279447384, 0.32882659548365467, 0.11690439417305738, 0.20331622409710462, -0.05685952709819976, 0.026173512433107067, 0.010973671146872515, -0.12548382618171844, 0.09181297591567215, -0.11977809688806347, -0.11000256261632488, 0.0025037402680638064, 0.17512651568636609, -0.12965576827786562, -0.15420512359683938, -0.0829920953501422, -0.010933008601587864, 0.29462234671324605, -0.06010497771838649, 0.029312721703025943, 0.09438025322782138, 0.08124860912196104, 0.025629644900624873, -0.0056444237590428685, -0.214542861959175, -0.13558212469939315, 0.021575698525552873], [0.2789561090195332, 0.014096763374543863, -0.1471100183681244, 0.0898823582378441, -0.21898045803929245, -0.328830950311672, 0.6349189299482303, -0.27630656873396436, 0.47354475787117556, 0.005541583024873311, 0.42394129776884426, -0.18100244568016458, -0.043373730196367075, -0.1775449127016611, 0.855519838114979, 0.28196827893831583, 0.20427609772904903, 0.039273174620980185, -0.5793555420832556, -0.0498539490047997, 0.01594178707441557, 0.15221778241096667, -0.3114404800725173, -0.4625470590219539, 0.36230951770966313, 0.1657696640027452, 0.13853718742327523, 0.15241080989698616, -0.013147139282531738, -0.24207651992825716], [0.5918522735178932, 0.06002701825229941, 0.009991019680889208, -0.0007514272132786771, 0.05607833356488819, -0.061628770801481936, -0.1973502929666588, 0.09420713239498396, -0.01011148041129516, 0.021039061466301922, -0.010070893773979116, -0.032361857699361535, -0.02517436105040866, 0.29623652909250453, 0.15438354862335904, 0.22034420955713294, 0.265514467934645, 0.16749637541270018, -0.008800656257500499, -0.12671928710506455, -0.047114050702247334, 0.05719495938439096, -0.07578516624044564, 0.013308805434155984, 0.2864026996675215, -0.01574714946052701, 0.26786801439892743, 0.023572231988178066, 0.025976380736792856, 0.0739346185494678], [0.0583740386687228, -0.019065936292773828, -0.10198877035460041, -0.0023771305180520334, 0.03699070607966989, -0.12041273125475795, -0.18135602628471534, -0.03289748700448769, -0.0058912503321688695, -0.10331764743186042, -0.03614095487961209, 0.1628775748903499, -0.02097892671111613, -0.00394263653019225, -0.17656377028971015, -0.04238653432103903, -0.16392758425379164, 0.0021436734255240626, -0.13086835995741686, 0.2987242324361164, 0.14049539865145505, -0.1988170245975926, 0.0025283697757646087, 0.03728536683583606, -0.21018080120027743, -0.06276094602453965, -0.154305198086098, 0.006606216313959019, 0.0893610145078567, -0.08991602783496248], [0.07661979473136601, 0.358392177299909, -0.1098727586655361, 0.08226260848093615, -0.052778092054343737, 0.12098120216330945, 0.044073933185756135, -0.05544684325738168, -0.10086371130464011, 0.10783758716924402, -0.2094167200676451, -0.16369700247882268, 0.09679396281172217, 0.05383265677944461, -0.421941398358288, 0.21133314352818877, -0.29205000420530985, -0.2425952474339559, -0.03338661528428712, 0.49159816534375195, 0.03152752832767377, -0.055520997805914116, 0.22780256776601332, -0.030697339633008622, -0.11205931738300377, 0.04727459918382579, 0.058259107272206685, 0.18190749138635176, 0.07272238089588746, 0.054012688468487176], [-0.1638481579619098, -0.42444816815966613, 0.05089902429969195, 0.1677376391487411, 0.0017322073253308885, 0.004373869559263188, 0.5009144634758728, 0.10215932691111512, 0.16170818074004645, -0.09348227311853571, 0.1744404282907539, 0.24335352022993686, 0.042129433113752696, 0.27101471049618675, 0.11864985345539078, 0.08302626968070571, 0.002162637419613931, 0.11280445130489697, -0.06573438244631766, 0.3910490799099744, -0.03105359718200598, -0.01445351949140711, -0.19916791832028888, 0.05327657199148511, -0.06415860412546555, -0.2903218752000029, -0.08849511944344655, 0.12420601541940138, 0.18074467130727379, 0.06750581673140282], [-0.02640053897236315, 0.04250285843178733, 0.16296189101589625, 0.03213763550307929, 0.2501362075121935, -0.05569645422385111, 0.009058821208330637, -0.16200543024660014, -0.06312508646042618, -0.1736339944495181, -0.0013364914038579698, 0.3852800642358918, -0.04451390899497446, -0.12215365525342264, -0.3281881726786852, 0.09257120298915701, 0.08331338738195156, -0.1289057327486417, -0.0766054295898855, -0.1633670207706011, -0.017723596271232385, 0.27239518701439885, 0.21660304182883275, -0.2604039449232303, 0.20752269723352115, 0.04678423242511809, 0.45098232767048446, 0.10183626812571434, 0.07117101619402377, -0.06340497363662384], [-0.23660756135415015, 0.10393306886296867, 0.036203646861720985, 0.08169943848201124, 0.010299453028418929, -0.320755193789046, -0.028313650019643033, -0.055208688758332916, 0.1850877718039619, -0.18556331557031686, -0.1430873058305878, -0.09860008105823653, -0.04764911903786134, 0.24140201396041217, -0.028763368920953773, 0.18942574212784288, -0.17921866306069167, -0.22932278688432092, 0.028632096700685963, 0.10592102708155718, 0.08051146950269449, -0.01872958087464012, 0.11574984837090059, 0.062009935928045025, 0.040799483961268944, -0.021319286967918374, -0.21811223844646888, 0.04993596483507632, -0.0009059239689497379, -0.10478380452608835], [0.020123081406094655, 0.22525632895056238, -0.037733150249928106, -0.3153480156253519, -0.28633526002216675, 0.1448312116065057, -0.1030732944560874, -0.0682149636576422, 0.25291858608530493, -0.03631399621867734, 0.12482123757271348, 0.417981782153312, -0.01199170789754111, 0.0875162008435651, 0.4056104687265436, 0.34131846024304624, 0.022426399246351897, 0.13909952227703262, 0.2263035697177426, -0.05370750045163838, -0.24064841035989876, -0.0008428399924725025, -0.2718887756408765, -0.041574447014587845, -0.04479348043003691, 0.20081263380618672, 0.14614139960955772, -0.27619719194593073, -0.5989407431430004, -0.31382876928036224], [0.10598734969687175, 0.06441050210465184, -0.029619923935100812, -0.11054576965734415, -0.01695338428404407, 0.0029877590487547134, -0.20881900981598514, 0.06588013117660835, 0.15339618568897107, -0.0697025737549274, -0.004703087472279279, -0.03800763745615536, -0.12110196807438656, -0.00789383226524792, -0.01976240115753305, -0.0458714038316862, -0.14311505771722405, 0.15228724766502583, -0.10168493704025491, -0.19070007183269203, -0.1013874975798734, -0.04280853858206267, -0.0007018052668580174, -0.04911412986102218, 0.09643619768374603, -0.06280370638948123, -0.10953959601581642, -0.08278395085626086, 0.010502746368208705, 0.1434135079252826], [0.0677898672425488, -0.10359178235821649, -0.038262586599752145, -0.24030874146885636, 0.06651315188987916, -0.10125776799357089, -0.16517703741475456, 0.08041910280791587, -0.034072019235237345, -0.13943832378025572, -0.022772310967117123, -0.013453846850661547, -0.009060311180319953, 0.05270795382974692, 0.06070929171719707, -0.1400806360348784, -0.039018364449172095, -0.20913372378665612, -0.10235898185821157, -0.12606340912168776, -0.028312323653789138, -0.08094635910559606, -0.011536430836462015, -0.09384867559333993, -0.1743348755508887, -0.08641429773740943, -0.1127901906684338, -0.1962970501959043, -0.13448447052972515, 0.14595367577267046]], "b1": [[-0.6466750435256113], [-0.3544580333061788], [0.17001645426176198], [0.2411651963439502], [-0.8248385466057275], [-0.47523297364295913], [0.09021369359858897], [0.36057187555463144], [-0.3716823321643305], [-0.41633150922642753], [-0.5187292477051034], [-0.006194578787265595], [0.2225682554073039], [0.13940446774214377], [-0.7830502253939552], [-0.20762999934385648], [0.1026451368211117], [0.48078418439246995], [-0.13212704013150262], [0.2440082318347787], [0.10034507055677568], [-0.4952864617132504], [-0.033190681811793354], [0.01797257078318927]], "W2": [[0.11650473270875, -0.08941996135586226, 0.00783921166036362, -0.17991149841170714, -0.02442614684699767, -0.15921967259162675, -0.1349733025019009, -0.03916323298771372, -0.09042131102004773, 0.17442575788704837, 0.01964541378830618, -0.10870115572220915, 0.19348393899423114, -0.013753784206819811, 0.1401233880962043, -0.04080988588685597, -0.15607038869156864, -0.09462531513125824, 0.006727885063597812, -0.1713777578934004, 0.2326982912494365, 0.022089015901147646, -0.06133815240995292, -0.10277956485618059], [-0.010058582975870325, -0.02721628199285103, -0.15020367450343325, -0.09821556400226328, 0.04512007837889471, -0.10222449699876, -0.10304356483857494, -0.007823519835791009, -0.08547092496029922, -0.160479887936961, -0.09657509539424697, -0.11339037560180486, -0.12181112210106265, 0.1613469508763556, 0.15455228368500973, 0.08115973474932037, -0.08411816865104539, -0.04032426284839196, -0.02738555929965735, -0.05593530408965326, 0.08680333346940139, 0.03019254391953636, -0.0043177946660916434, 0.09329059128361705], [-0.14274388898599477, -0.12332435657784471, 0.10288481427669846, 0.18667222695476332, -0.0774118092916764, -0.0027225778676058725, 0.10275367628124936, -0.15220656552850265, 0.13203726904350463, -0.11874786255771515, -0.10958526083671871, 0.0315290166517631, -0.03632621324001873, 0.016033534791733636, -0.08287651342791758, -0.18097141544013745, 0.13055926735154924, -0.010338795018750452, -0.010019705183709844, -0.10769370583862, 0.057395826776499216, 0.21124731752745737, -0.18451937112431094, -0.08808462310550035], [0.09370405488434214, -0.07551494623417662, -0.07429389085807253, 0.03771092143713816, -0.27675648661291585, 0.23604963087953237, -0.027437953876095923, -0.12812247893916, -0.03505420839513709, 0.015782776056581568, -0.08671054658764812, -0.0551351170483271, -0.08378483046310232, 0.03730536306852285, -0.12487422126130164, -0.03358074166264984, 0.00028487388882065227, -0.09006747663428762, -0.1760957543308098, 0.1955307024255055, -0.01999102927640182, 0.03989427512701501, -0.1908398409928006, -0.010839471458205758], [-0.019589975588348935, -0.14388951727454918, 0.12571543848227856, -0.10543469931378037, 0.02003695789537818, -0.05888396422386944, -0.03442324205295539, 0.16859799266264627, 0.16560782138145566, -0.01562203712344509, -0.10099834681885154, -0.057356197372465584, 0.04197060113541218, 0.13872206602376028, -0.023028179516674137, -0.0342119047101297, -0.23187323753610994, -0.19151316520378367, 0.03737481199372806, -0.09432623696414726, 0.0565875471013172, -0.03260849783717112, 0.2641963250397436, -0.01538650706640684], [0.11147007705766634, 0.12167812540011619, 0.02399465221897176, 0.022218381147211884, 0.059104601483286515, 0.06327115263895616, 0.016942869258072608, -0.011037257196966818, 0.01196688608783691, 0.05369482797459799, -0.08697762673633173, -0.2228370652458513, 0.11782103203051017, -0.07311978965274966, -0.0075376788113282606, 0.07676980579829101, 0.07429251833250493, 0.02665437067386818, -0.054035031984983585, -0.0612386204347173, -0.0961002027699457, 0.17283864842764388, 0.0838772733710439, -0.20768278796854206], [0.3970992840248029, 0.4863965063179419, -0.12830149844077382, -0.2284119618997501, 0.2381624215050453, 0.31154854116208874, -0.020817294489010717, -0.38172532519112307, 0.15554573373279432, 0.4270070558738264, 0.24805992376129882, -0.10450119875235728, -0.21138357582343642, -0.17300243768252138, 0.5035027712823653, 0.34400915157994816, -0.10026746158958302, -0.18192736953105199, 0.6151157533458976, -0.4482903946272996, -0.17819880390626855, 0.3949524733800505, -0.1289805323471575, -0.07937406141451743], [0.12292397366727645, 0.2898648668378854, -0.11527142873229677, -0.38447308709263733, 0.04254179207814498, 0.2688485557379769, -0.059168379748490624, -0.11100989716459941, 0.1305155943770501, 0.02439537865344053, 0.07070671516361382, -0.07548050798928499, -0.041844179743983585, -0.0632145659369967, 0.3530742918747511, 0.27019056963439836, 0.008545251702626485, 0.06377235599066891, 0.18199724473229012, -0.3332265423490084, -0.09108137841444074, 0.10595716679951278, -0.19847643571878293, 0.11941024639609805], [-0.14032894815859304, -0.1689224899971296, -0.0137510815223163, 0.16381717377584754, -0.16382232301767194, -0.20861494227541746, 0.018976103067401297, 0.21239937760028155, 0.10315808528892043, 0.00734777122946204, -0.26645887804780866, 0.12139302158962957, 0.056561171533522504, 0.0035202468714994554, -0.09895857898776156, 0.06007502755762197, 0.13351844885915445, -0.09365794331235225, 0.060773583159626915, 0.24780456069959172, 0.27212632084601174, 0.061400884740986886, -0.2316108341127172, 0.0813187142770374], [-0.09275639255856039, -0.15650881623847243, 0.062387155144422904, -0.05294604825971519, -0.08865156182726343, 0.028650624937856525, -0.10375310310380197, 0.02513073275119156, 0.126878403647209, 0.010222261737449983, -0.10724283540468048, 0.08771798485667523, 0.05257344526297433, 0.030204306182401493, -0.0496801903658766, -0.08549142561958385, -0.03555833879997514, -0.13422871397045077, -0.09279197605585783, -0.021316338295936908, 0.10436700131233122, 0.006981437029852488, -0.019808390796817503, 0.012359093132588012], [-0.11465445575012963, -0.3207356177812282, 0.38971195736978964, 0.23694650473361104, -0.18172101359829185, -0.21743010439497162, 0.17049427192799096, 0.32049157658994143, -0.26879261216227757, -0.2271221307643972, -0.052218822791470804, 0.052891970671176104, 0.20801075130266952, 0.2800215528346472, -0.21153561347678773, -0.16043189722891332, 0.06316003104871656, 0.3272259835888728, -0.2688928812199711, 0.3427200239395569, 0.28897490145921095, -0.18896518027461892, -0.07836087736011156, 0.10241323166119173], [0.4083661737545901, 0.32615683861968353, -0.10308541100928036, -0.1113034888275283, 0.3308796189205987, 0.08712271166838977, -0.05658744272628819, -0.07765099507174808, 0.15036104292701452, 0.23098995786296714, 0.1597674652447783, -0.21429982099787115, 0.001033278845686333, -0.1510940237120711, 0.23803615228539934, 0.06516483946861254, -0.04307126470731358, -0.236083203164272, 0.23002837772657492, -0.1037469403228892, -0.188956463128375, 0.30157026705433254, -0.037698958569385106, -0.06689427393962084], [0.25799607002892305, 0.3484704749432575, -0.14290842379267954, -0.3000472842101138, 0.20000132562316847, 0.23087525684460988, -0.01783028383444426, -0.3561135840115354, 0.24319258858447834, 0.24750221393902092, 0.3321960182438034, 0.014469501246881903, -0.12108790557234121, -0.2113974100155663, 0.5540436467418798, 0.23374018261821247, -0.047792152513353614, -0.20614521573573516, 0.19217009462517248, -0.2484402401284319, -0.12439569121408181, 0.2852504869278418, -0.04690027035708204, 0.05370200034574803], [-0.15064861641102237, -0.24161603768391643, 0.266557055843831, 0.18439955114322157, 0.008275086604497375, -0.30110259975369347, 0.2726221223580034, 0.141559195086994, -0.1268449772644146, -0.07196863837705184, -0.20251247448349516, -0.018766088015558773, 0.04758372318108609, 0.23672479736145338, -0.22284035775617902, -0.15361486752302927, 0.20473088525780414, 0.31375357700798295, -0.336610388872353, 0.38199069157294635, 0.1349502269355236, -0.2440869218655195, 0.13782580745105422, 0.11103956489660397], [0.04186674704248927, -0.03212503695740025, -0.11003373987686194, 0.0237224979080582, 0.17392350025054015, -0.10644387918430338, -0.22523672740121106, 0.05285944306845052, 0.009960452325291386, 0.044317632494266096, -0.016914329564853413, -0.01124955163080524, -0.26096487784188527, 0.11609977626395519, 0.12371023148520245, 0.11209044898831036, -0.1297292247457074, -0.22093116445822084, 0.14160522192577088, 0.043517874979194, 0.19562489256486104, 0.0950561914826884, -0.11666997858813558, 0.05413756267156182], [0.07641925676661265, 0.180881941559302, -0.07773820612307433, -0.024460120557176442, 0.08122650066228249, 0.08281386255763147, -0.0011450577989065226, -0.1436021216400797, 0.1716054891475709, 0.22186593097187746, 0.03179721384828202, 0.05300583117019042, -0.02894897064451803, 0.01826369823177352, 0.002497926765270539, 0.11006446431732006, -0.04975740031073692, 0.06764975175270303, 0.12895431975363963, -0.0015564453889661794, -0.10140180082818849, 0.18777018248058855, -0.12624864846983122, -0.1263020010205166]], "b2": [[-0.013418625473808031], [0.029057381934782467], [0.1001915850170824], [-0.006364591037500711], [0.06108270945452809], [-0.0019257895407473896], [-0.21535528835803344], [-0.06270210245509218], [0.2522408901553671], [-0.04978375750279947], [0.5682430483088917], [-0.12340685028373971], [-0.15450390671240533], [0.46412713180982934], [-0.050838620295980644], [-0.07399442899329924]], "W3": [[0.0246665302913224, 0.010172952892442227, 0.06676186942382846, -0.10900454228613397, -0.18178601582645545, -0.10217265994679316, -0.0016877723212752067, 0.04685242267520624, 0.07754097500775847, 0.14512517348377552, 0.16897885861150772, -0.050193164579607596, -0.12137792251936928, 0.10157101736641186, 0.010059399453987735, 0.18870627819857272], [0.05317691420810923, 0.04542900814892948, -0.030054266923056523, 0.09970819276540659, 0.026853106719362165, -0.1810974660718042, 0.6017057854483839, 0.38583357814412533, -0.12184038340696651, 0.09076096897989214, -0.29059851023468447, 0.2763136814152593, 0.5905342412759184, -0.20912476192324964, 0.20220254199850762, 0.18138033486547386], [0.1599102818558944, 0.031053244744012293, 0.04134086839862268, -0.15396340176406478, 0.08870350689535215, -0.028884210389850878, 0.07984013575934586, 0.17893026920194388, 0.09385139867719733, 0.0035623958013177846, -0.07507116909088571, -0.10586310550848008, -0.05412302604692693, -0.1417480943590634, -0.08538218995477055, -0.09968626218817137], [0.1117950900904195, -0.14968600927734593, 0.04727149035003367, -0.19848201207705995, 0.08528330621128329, 0.002517150761608988, -0.013718948138767374, 0.04593974332681442, 0.03101793231632159, 0.045904499431745314, -0.03484795272868121, -0.1313945579349148, 0.03883550911127178, 0.06698119622002846, -0.11319577935413547, 0.14239298085779223], [-0.13779294969524764, -0.058428387664157255, 0.14941782293699343, 0.03850405651715418, 0.14992971702866198, -0.12230139945186119, -0.13920011075547287, -0.21731468213414146, 0.3162752502334091, 0.011295251693671718, 0.3777965699931598, -0.13166754219150542, -0.23667087868587225, 0.4128380446734719, -0.09470460202552143, 0.014726981778496266], [-0.022887852040863552, -0.0379880202540248, 0.015989949389928954, -0.003523633402103293, 0.16745501509653754, -0.13049265558329726, -0.11125928500974522, 0.009663967768328225, -0.09351589433266262, -0.011549175178271049, 0.15902825270863588, -0.26535325766689266, 0.10993021386866347, -0.10106012358682319, -0.16109848687171177, 0.04578366608525979], [-0.013956112343005308, -0.009072252086463782, -0.011255195215738659, 0.2651081982619892, -0.21561651944766613, -0.06276888741102818, 0.06281768438777142, -0.029471969149538882, -0.0031118487290910895, 0.010758795767491934, 0.12601433492268976, 0.053463609621201565, -0.050354539896744946, 0.08196094197827337, 0.035857415524870845, 0.007681267776664278], [0.010181508486363018, -0.08885005037262296, 0.19845599305480957, 0.1827340717457461, 0.08186367010042661, -0.07349656069175488, -0.15236589594047692, -0.09465964163856086, 0.22350413890779977, -0.2526262227576661, 0.5201068787839094, -0.24980669745717698, -0.21940672727839997, 0.4187956467622853, 0.05142418585284861, -0.16208380659299443], [-0.0012598185874455636, 0.007676473661276672, -0.03439867382556958, -0.09149787121570367, -0.004467777995493564, 0.13570980565629756, -0.06944889019648595, -0.039815643622168106, 0.1589096773085518, 0.11159508035455688, 0.1493120700592938, -0.08560590840868705, -0.0790416827824454, 0.07639098408615924, 0.0524031702432472, -0.14210271858255996], [0.11634510017845813, 0.13635376781049074, -0.094628277209649, 0.07583149679791963, -0.1756344732191051, 0.236186443687079, 0.9210807596468527, 0.33513445995607377, -0.262230266946158, -0.09224532728084725, -0.42263001243827625, 0.4573354437969874, 0.4378347732911475, -0.4029677077611026, 0.1455748663485958, 0.1789071988821778], [-0.17570572457944775, -0.18166064639805818, 0.021856004745902713, 0.044732366577073204, -0.12529148013008035, -0.08043657596210631, 0.052242388523518896, 0.16718130235683953, -0.14845987209672037, 0.07008078728859068, -0.16068891813760877, 0.019994973630444245, 0.07546214334640171, 0.00876478198950009, 0.0033498216546398746, 0.095310192415754], [0.039873013423988815, 0.05198681627899645, 0.11929373626809718, -0.053579855990713625, -0.19177481332342033, 0.012603947657710914, -0.18172330505274423, -0.09622792618120964, -0.038653072973706785, 0.04549256241111291, -0.27306102471460864, 0.0652454709661164, 0.07434967538628559, 0.039986137446493465, -0.041120978670548786, -0.004373652206043255]], "b3": [[0.06113637783516006], [0.03942690565094334], [-0.07001062793135635], [-0.06558517268484643], [0.40730229042347377], [0.06118691421104226], [0.03552343092288587], [0.38525208803116573], [0.15455996834848695], [0.16652104388379527], [0.035874357466897745], [0.0032004908272456065]], "W4": [[0.043864281144119575, 0.1761743709006374, 0.00082399205786215, -0.005614502968360292, -0.2145688706470078, 0.15658891330976785, 0.19464960836380774, -0.27072018016815597, -0.07539274330232769, 0.5633713754613489, 0.07540440035565439, -0.18080887942762863], [-0.11006916933952596, 0.025187565203503137, 0.037797795515097675, -0.0796417344798787, -0.10413658282584563, -0.0893217911435174, 0.02917837399899987, -0.12284944080401108, -0.16256231293619208, 0.32814764236653865, -0.043008010422495226, 0.025673835770235093], [-0.03247144434850935, 0.5277435140837597, -0.10757659346847155, -0.09304392238296409, -0.2727628831343499, -0.20676604821968536, -0.01819872831433046, -0.041312069540791314, -0.08060612042788898, 0.37007668966401785, 0.12159630812360918, 0.09199422101488125], [0.048695649860812894, 0.0019172239613651609, 0.10946219222424595, 0.1158981987735874, -0.024913596550792293, -0.1773784463612765, -0.2166869922166249, -0.15621327059168527, 0.047763109581030444, 0.02031579106656401, -0.06402621382213712, -0.1022774288586261], [0.21026335068872357, -0.2285638039726459, 0.03849430685302712, -0.07020780326296183, 0.5305441025939741, 0.10387835176777255, 0.11546088914856031, 0.6252404908956195, 0.29052334367526994, -0.3649515529759707, -0.028475611584803433, -0.05684845389371104], [0.04453615613904216, 0.7386713307484821, -0.13518311709622813, 0.11396795486355313, -0.30558160475742774, -0.03172946621030721, -0.03290591541455558, -0.4172866589342014, 0.0655089701381431, 0.8681680595097301, 0.11980028048049318, -0.03446145948146162], [0.16027231818462193, 0.00593062383603223, 0.12386841489766749, 0.06378101615587786, -0.0159152554016966, -0.26913825796163565, -0.08491089026842695, -0.09138069631279919, 0.052619758166455186, -0.05455819032509994, -0.08279771616819685, 0.2062379141035051], [0.0848170087724796, -0.0013737976136605893, 0.10380074271610744, -0.0335147967906324, -0.047883248565200605, 0.06379847606173535, -0.0433094796287108, -0.11156178981500785, 0.006628184465082287, -0.06324894823234563, 0.11718836916356788, 0.05915855776685645]], "b4": [[0.15546817208278582], [0.08044211399136536], [0.11320632506300994], [-0.023823726559210383], [0.5348238087863848], [0.2310091829782928], [0.0036179606908349096], [-0.005474254178951131]], "W5": [[0.5429118690812703, 0.27853412187146676, 0.6170980799084628, -0.3083967081350166, -0.20917429778587077, 1.0952641200434023, 0.005209402635142925, -0.013455231169462846], [0.220607998453776, 0.11815060327593309, 0.0758271317591856, -0.14973660467752548, -0.18144586731556622, 0.29720291673017557, 0.14200009983343057, -0.01746427076637923], [-0.03848057523393052, 0.10505453490852766, -0.047446466166333065, 0.015488981164804348, 0.13547300713137608, -0.01777789386391712, 0.04182737696777274, -0.24729958417552866], [-0.1818954488856286, -0.01617106344869683, -0.14325347298463914, -0.01853284225932867, 1.037729629707529, -0.29499732639513526, 0.0673027831347737, 0.053970493720145486]], "b5": [[0.07144363899893359], [0.03586319956108379], [-0.02944455033126749], [0.806622198359136]], "W6": [[-1.35714707070445, -0.37939749968708003, 0.07739313724049927, 1.3246576480867107]], "b6": [[1.812472172220884]]}