{"W1": [[0.06339848845981465, 0.22002130217198396, 0.01883211090952898, 0.08545029661158225, 0.10888517312331704, 0.05063867325422831, 0.002867830856162969, 0.05212701641361874, 0.09658269843338083, 0.0686160710930319, -0.1567722277084566, 0.04111654839004236, -0.08532376303001404, -0.005131728126031858, 0.032775346421421984, 0.034718473640416816, 0.07251585611010819, -0.10649365306360074, 0.043255215396214235, -0.018703824416558056, 0.08241505084701242, 0.12196759925877142, -0.09854602787552298, -0.08210781997519408, 0.007526450076980356, 0.04978029506983683, 0.18501526243479485, -0.0013948134238430344, 0.06939878633393388, 0.0670186833536163], [0.006381527235853268, 0.02783434771311182, 0.0942633561124173, -0.23246238244940448, 0.062395058039667765, -0.02213850940591879, -0.07775810096577256, -0.11706535478975631, 0.027937312259512855, 0.1466340982683499, -0.04816729100837907, 0.08278771629606067, -0.024220805328027468, 0.11964677593976053, 0.026566029415827853, 0.07475366695226571, -0.14193235358813516, -0.2628928132848423, -0.19135355785208086, 0.01891776700362744, 0.04567525480402728, -0.03087285936383551, 0.061685146753388265, 0.02976991459439048, 0.006348486130062953, -0.032686044703534346, 0.05058103629074863, 0.038122909733610495, 0.07143996991886721, 0.016636215682816813], [-0.17574638267020876, -0.17606626357574331, 0.02573680769610894, -0.06315710176824385, -0.4967286281328404, -0.08461126551211987, 0.0708464802668324, 0.047709229397056574, 0.2614788094618551, -0.0495114254293723, 0.36134354023952536, -0.1307732340906384, 0.2923647898271832, 0.09639056152272177, 0.7135638782278912, 0.04309248627523503, 0.3061437103146567, 0.18356923877885825, 0.08509509579440566, -0.09072814405769841, 0.18309017714400475, -0.06802932106141098, -0.08882104914775849, -0.07818941432032984, -0.06665138469996684, -0.04452931614974387, 0.11879149135786797, 0.23293447718567636, -0.2035697926637459, -0.022183360163878153], [0.09323675739028198, 0.005265342462415142, -0.10428672474426712, -0.030763508625470434, -0.05560707990670888, 0.15351983613499698, -0.17379357427681527, 0.025033107496681802, -0.10225453014586036, 0.010992085677288146, 0.13526802894128498, -0.01913447232482723, 0.2151251031214899, 0.043310619054655004, 0.005151136036219545, -0.07287301989590256, -0.02821589332044939, 0.06164588264713822, 0.16134976961663908, 0.023527638975506717, 0.1733071233627018, 0.09123217743154557, 0.012365684440452324, -0.0434608487098051, 0.21737226680699107, 0.038670629981976665, 0.03369045266130389, -0.25306650823215104, 0.12740448515812972, -0.1812289771885008], [-0.1278921402231115, -0.03546676652593884, -0.08764440698844912, -0.06437026439860964, -0.10929359612529352, -0.06408279354529642, 0.211773641151185, -0.02109629677273178, -0.05498226186999339, -0.026204158674081195, 0.12077410470806373, 0.0986352162769956, -0.09425220996011084, 0.04210962131563301, 0.0540268993489759, -0.08392680077950168, -0.15031738095719985, -0.15568570049775338, -0.12230207364477536, -0.1412122476657368, 0.08032183195582966, 0.08700617715793807, -0.06675169498170432, 0.2364856825673762, 0.2411631117599142, 0.06917599660872611, 0.07740728995213421, 0.09620125342719368, -0.2056351947085716, -0.10744805651489658], [-0.14975086630019205, 0.17048355613693897, 0.17635013234080274, -0.10006783545540607, 0.1267514308984334, -0.0070747048315368405, -0.0012618946535192911, -0.035398127503064994, -0.291127868703141, -0.10102577465679603, -0.10281088567143838, 0.08707237054669477, -0.028355006768740892, -0.15198678150905498, -0.05616335956498405, 0.16097624722816806, -0.026405949637002733, 0.11931035848510647, -0.05561272769505537, 0.16874777341422822, 0.14245323327109743, -0.054764394640181534, 0.28652309248045377, 0.15822803834822116, -0.0749395042139534, 0.07546766403958685, 0.3399777631132432, -0.03880167364764742, 0.169561538644404, -0.03359004657076851], [0.32274880529592287, -0.21273867131721347, -0.1430928314120804, -0.08609996049692044, -0.23093512108624076, -0.03648959276121759, -0.08068565287830125, -0.15820262127634757, 0.20602267321548523, 0.16365203013836377, 0.18015179615916627, -0.23154460541953734, 0.01887833545153894, -0.21847998681281103, 0.6602743264974577, -0.11352099563854773, -0.08370758063392346, 0.04671300581689291, 0.020006898746965415, 0.06884732343130158, -0.010823824955766604, -0.00406101032447964, 0.011106749044766898, -0.028987091829819782, 0.3046193541227306, 0.28468759623637435, -0.055888174173156266, -0.21969902984307835, -0.13146057871718214, -0.3382403784181904], [-0.1296556298802826, 0.21587376695603105, 0.11482005642852777, -0.0635697478095626, 0.11124566097392884, -0.017884220358543416, -0.029896510332763783, -0.11579439259172278, -0.03345919533758598, -0.07060782091837323, -0.11993523742128073, 0.030072282701084637, -0.1015549594174722, -0.09305084438791159, -0.057474323397400474, -0.18650264541986644, -0.053315344510093066, 0.07658317359975732, -0.18134421505210388, -0.23553227785252856, -0.17379325489790629, -0.0547791864955663, 0.050299707451983, -0.1596097894043348, 0.03398126984340846, -0.07965971559619159, -0.05520707480295142, 0.161281344972116, 0.02688810361169541, -0.15758230142849516], [0.3739426331353879, -0.11848566757613961, 0.10061306046814794, -0.00711205457657763, 0.051599877051160134, 0.07780173146626501, -0.06316315779912623, -0.12395164093290771, 0.14914118275582253, -0.0715785095187639, 0.07122173245942896, 0.24854991321383502, 0.20431108404189208, 0.1771452035765522, 0.14287998965110046, 0.07005424015462375, 0.1535355399068927, 0.08873811740337867, 0.34160043769162474, 0.06346446576117637, -0.19306870971591175, 0.15100585044146497, -0.049747292471484884, 0.12762098186763998, -0.16428204562090623, -0.10875110955802907, -0.1289225212184913, -0.1176779527250693, 0.038434304941217405, -0.2711232123335088], [0.00017071281534951853, -0.15914369478785267, -0.13157059738969407, 0.017086229210225408, -0.009300207888741203, -0.06506965512314755, -0.13157692193512543, -0.02187976090634124, -0.01755169905155814, -0.07625878473216653, -0.19302081715620037, -0.14677628038558205, 0.15828496219247257, -0.07702246822550428, 0.00901570104601501, 0.04638810239938284, -0.004144144051469797, -0.06984167258376145, 0.02269191248932271, -0.01367955237778184, -0.009793974734849373, -0.07020278098172052, -0.11474506074759541, -0.054580897567553986, -0.055274391938810064, 0.15650483760344985, 0.12649551347032165, 0.14323978612613758, -0.018769352515713125, 0.002387068214296518], [-0.2650616264053467, -0.06492185501203232, 0.28150390380043594, -0.005824203774756986, -0.1534448967698854, -0.052504505779289036, 0.13037305481838285, -0.04336556196155429, 0.12627167146536136, -0.02277532195847378, 0.3419131630497874, -0.011819764891134383, 0.2384385497315836, 0.18983516644741097, 0.4310896121778395, 0.10082887524932066, 0.059989296683694696, 0.0014742106388466614, 0.09921266997178046, 0.04132057972049823, 0.24906443617441154, -0.1008086564504179, -0.05777190989116666, -0.18254618517738205, 0.28487580605132273, -0.2729306770914298, -0.02767070620943453, 0.10632278008312977, -0.08052669977362083, -0.11594372550918026], [-0.11689274680665875, 0.05368859412695545, 0.17785999729228688, -0.16055327736543937, -0.04094290655187558, 0.1502817298341619, -0.028679747684772095, 0.007878496877770173, 0.15974063501772107, -0.04961853080791778, 0.008471850041098935, -0.11899277770499654, -0.03556623180735023, 0.02378649366456862, -0.028747234695052443, -0.0294554088672776, -0.09721017530555907, -0.1442176103821506, -0.1437896949302771, -0.12408699144108323, -0.1573432866406005, -0.13270166798708935, -0.1333460911612223, -0.045833772335011534, -0.002249839626846345, 0.017211942579991577, -0.10586504980989517, 0.05795875082071621, 0.052633248818285135, -0.016788426252836233], [0.14417641090643937, -0.1183269154925827, -0.021396563728549006, -0.1354054139671866, -0.0845696748869926, -0.12221305518136691, 0.06354630501965884, 0.11792567618345291, 0.08850472458553671, 0.04881046322777291, 0.10251341099305739, -0.09016076033602873, 0.35613805733037357, -0.28804324181758123, 0.5058609699135024, 0.05661328385920363, 0.009161865269905697, 0.15207168078816435, -0.023651315915346673, -0.08751634962175259, -0.060073793674214844, 0.02274085256766691, -0.08947215212570318, 0.002572559974434184, -0.06442875799448705, 0.12568070425237948, -0.00550152132636119, -0.08521808827510552, -0.04244154089135259, 0.10454942585481107], [0.02220331550661337, 0.016237093338090057, -0.15736123139824654, -0.10929745910424878, -0.14579367850225342, -0.017736901006842613, -0.016354269766628505, -0.057980665261384505, 0.16274189624852411, 0.04284179073337943, 0.13410390554451285, 0.27385427057827194, 0.12913813338404476, 0.17956562658788813, 0.15246758585909884, 0.3611532781332764, 0.01850518021942931, 0.037842510412787855, 0.033739135813278295, -0.047994095101704604, -0.02248397712554819, -0.18823409883943043, -0.062013549835917635, 0.03952535722702301, -0.0812899542024873, -0.06243259765277007, 0.0800752117198385, 0.059720535489011614, 0.014392498349596732, 0.01372561584498829], [-0.048547992014519516, 0.03297308482694762, 0.008057307554236033, 0.08489184930042869, -0.06269577446583677, 0.2149816144838464, -0.0020890795711219446, 0.0455597820052812, -0.020700519527163598, -0.06750155597234088, -0.11214669059892027, -0.016166760160397465, -0.2659200310312634, -0.32570162370570543, -0.22548551526432137, 0.12519757084888147, -0.09927675775013334, 0.03375719979035623, 0.05304088403312425, 0.05011364677884864, -0.03679431040428178, -0.029289543128143594, 0.11017387474125022, -0.06409032488077403, -0.005416841215698642, 0.011841628389967305, -0.17954464620686525, -0.0550631861329869, 0.030702184727727986, 0.14100561433779116], [0.0001167712605423576, 0.18955742303730275, 0.07220568529228522, 0.03778283413411505, 0.09765863604805494, 0.10456115828906211, 0.013867413059615011, -0.039206893268451934, -0.10462564546500583, -0.059999080876, -0.06764309104932953, -0.0073021476511909, -0.1683515376471185, 0.09913536329350889, -0.18767521513457466, -0.24207217259303274, -0.013147337406129164, -0.10560744574877824, 0.1013978655801795, -0.2614896259239381, -0.1547388559144125, 0.030680591575834255, -0.13647911923966122, -0.052772031573533856, 0.11263491478014921, -0.17898250532260668, 0.15916753024761182, -0.2092499563477968, -0.06816379342442622, -0.034677506530461394], [0.043155203389022755, 0.007827575379889684, -0.05364540869809329, 0.004938178306224209, -0.06386403752969264, 0.01717770811426734, -0.07956454848093336, -0.0575333110464692, -0.016689116802172423, 0.0076665514929718645, 0.03449241381998176, -0.25142734602694067, -0.30170589562970096, -0.05153518768490309, 0.025470249522788178, 0.08137170224902568, 0.07790294079416996, -0.14582380589171393, -0.04242243837648012, 0.08879549742869806, -0.03976498123868209, 0.12225750863375612, 0.04339699764546729, -0.114281507172272, -0.00014518511370663123, -0.11740837691756506, -0.01802226809596057, 0.054324682861230995, -0.09174007538934545, -0.05046852788441263], [-0.05672295499101366, -0.05170634262278478, -0.14794396508393642, -0.13096386623401207, -0.3821939420296162, -0.16696947068721293, 0.30727713376329896, 0.010504522632283148, 0.28985929381692466, -0.03550102610095545, 0.2653470540158014, -0.2547747308566727, 0.23075570550372562, 0.0006515974632687301, 0.5200183419204677, -0.30357765667803444, -0.10245141430471526, -0.09321440375845605, -0.2170715904861332, -0.15538601387706755, 0.18837481726944935, -0.02415106740787184, -0.014494038062420299, 0.07332759576091964, -0.0757027764556024, -0.16700354206817739, 0.022540222040336667, -0.10018798288273059, 0.24861206748303236, -0.09991635932516234], [-0.030664155577997506, -0.12971810182112248, -0.01913361268648136, 0.13944840330586258, 0.2500315018960908, -0.04197988017240532, 0.15831016183607463, -0.041408868584662875, -0.062546185245647, 0.0846574210785809, 0.019232385652058603, -0.023156903988283115, 0.19182630317763125, 0.03349603053750929, -0.08287302222849786, 0.19973114352157528, -0.25409373728734347, -0.06495227550069081, -0.05598227915057552, -0.12480107132967846, 0.037064898811985644, -0.03070238375545694, -0.041617956544172816, -0.04394914780056837, 0.2560511361905254, 0.044576617935434805, 0.0001548124389032881, -0.015092184984167216, -0.07357237695733022, -0.05069318484065829], [0.044192994887184735, 0.027560938979975566, 0.07534025337676213, -0.026982018706834164, 0.029626061709332265, -0.04034063571727457, 0.06293515895503385, -0.03127233451999994, 0.002203309994072256, -0.06203506961836966, -0.057533529826055044, 0.022916092287152114, 0.09209575512888792, -0.09242714188019097, -0.039428913245380316, 0.1336835385747821, -0.09341662296345335, -0.11559664427981549, -0.026731257001118253, -0.09568475910361925, 0.1591647718257304, -0.0984356413950425, 0.15822587297172047, 0.011260716659003174, 0.12718784732992114, -0.04790123993874579, 0.04656815853408688, -0.14740438443090587, 0.12235524401324721, -0.007205579764658473], [0.03246675268518391, -0.10799417075466287, 0.06076436050858374, 0.2998654903675904, -0.007398569425437537, -0.08957837237539085, 0.07970331086220386, -0.05043098915998078, 0.1409608846698013, -0.15780568154438807, 0.016794993692487745, -0.0027228235098786997, 0.1656292344038736, 0.025658894788585768, 0.10355904802949664, -0.07768561268718154, -0.1453045725103262, 0.01941037961307429, 0.13074516343880302, 0.028885863356366066, 0.22263545024660777, 0.05293255507132041, -0.1441523671831994, 0.08450924961994788, -0.0019063528767427076, -0.11139889080859076, -0.05483949918739227, -0.14634709201627885, -0.13674824960807444, -0.1728591376275214], [0.10853524060862586, 0.011007925582563746, -0.015795292679038328, 0.19190860895016743, -0.11998739765902335, -0.10877767066495239, -0.026820273568272143, -0.012856923047607093, 0.046103808230505215, 0.025140103325359694, 0.012642772616154546, 0.011737052277692755, 0.23268027653585618, -0.060746223513866784, -0.1740396284619602, 0.11733997146473805, 0.08225909782609364, -0.36715580768837275, -0.10921487776071187, 0.06809620348266916, -0.06408172575164928, -0.04654730848406291, 0.03161944355153084, 0.1290911492298483, 0.04476537966043997, 0.03446177347413576, 0.045009750822313795, -0.17450067055232749, 0.056988405857267, -0.13062517974606638], [-0.14704934371276146, 0.14301938188212712, -0.17798908363832477, -0.18374154032185064, 0.039296386939852886, 0.15441388078992133, -0.036975652529948395, -0.08048393777196088, -0.055426152557170316, -0.10911341356072472, 0.04636979935699891, 0.004286624835075237, -0.07397301790340735, 0.025657880086994406, -0.07341079840173118, 0.19989435857681756, 0.03110954632009152, 0.08169039321319944, 0.025116999131581014, 0.02885394766953419, 0.046915018822310195, -0.1031546038383234, 0.09638519724722389, 0.08176444768600974, -0.2689252578834052, -0.07546707935010694, 0.07717210424170083, -0.07838929001728162, 0.006021631656892951, -0.25277246063243763], [0.059434777743918255, 0.114681835104787, -7.595879553380343e-05, 0.19447329134129365, -0.04175880932796868, 0.0013226155946013001, 0.037106529493336635, 0.07121421713227685, -0.027241952093153696, 0.27471298151054946, 0.030863607309333792, -0.10626902425329583, -0.07350347997320025, -0.04341938582312353, 0.0017987998140719243, -0.059978673624616084, -0.009708274828920081, 0.06798423183393262, -0.12537884399194754, 0.09836014204230471, -0.0200783581874462, 0.19687048474573318, -0.14455004569239144, -0.03828899392528597, 0.026066522542868533, 0.11599068578016357, 0.060067819209718105, 0.029458227559624087, -0.010852069083162752, -0.13242788191096067]], "b1": [[-0.042236176766061284], [0.07219839864270226], [-0.498327765446108], [-0.13311477284195863], [0.01941537846511812], [0.10702402927843441], [-0.48605529994372926], [0.10494225449788445], [-0.24882407388421934], [-0.0672472610177182], [-0.2499995359467809], [0.05105563621906592], [-0.4039105232997713], [-0.17175223628664785], [0.16678042484302963], [0.14352559659793432], [0.02465924772029012], [-0.4465814880760864], [-0.03345706957093357], [0.025808029163879014], [-0.09618315456831887], [-0.023292709216823602], [-0.008047144714336471], [-0.15642031091649966]], "W2": [[-0.012676947391433704, 0.25232638199510005, -0.016544225931880697, -0.13377366095150825, 0.19730066257729778, 0.1588420496566684, 0.04175340774087397, 0.1725719625003064, -0.16819029732110893, -0.03532692970959885, 0.056193282660306695, 0.12014579179701002, -0.11215976340079041, -0.05700316807674699, 0.09902192415621572, -0.059045888138244906, -0.08067331560149775, -0.20093569156555616, -0.022022914270007868, 0.059710900765676235, 0.002275404547780689, -0.08138818758251304, 0.13644735314476203, 0.04206998279921091], [-0.045724790510907574, 0.15717436257486506, 0.17514086088504932, -0.057318041117593914, -0.11656715179988066, 0.10008370465755405, 0.13492714108608972, -0.005297465437955446, 0.09248812977809678, -0.02015513900652669, -0.18653699014454567, 0.07498082957485003, 0.14926600722581118, -0.12091293117470618, -0.1684024626924794, -0.02985602948362709, 0.04911883817909326, 0.04090512438464291, -0.07321423531118361, 0.057350849292471195, 0.025655390671628357, -0.005000243670014307, -0.10091058939475717, 0.14603232054107673], [-0.0007868972131402066, -0.062154665923055866, 0.3170279810594451, 0.12136340886716536, 0.07404461815862437, -0.2602034488185242, 0.32769528868426173, -0.15972686445607417, 0.4135271529685229, 0.04234840142461027, 0.2929652197605609, -0.09013093098799173, 0.19897536622718512, 0.1658185521057939, -0.20807370585363408, -0.21561962881371094, 0.088006847973119, 0.27652153009914293, 0.17615915957414985, 0.0929224164224226, 0.2887418624711803, -0.00534749739574817, -0.09280886243427326, 0.10314648987927671], [-0.028873108963373192, -0.09385591559052488, 0.33287305886065405, 0.22042452252745162, 0.1287839289482913, -0.39869206045360145, 0.37505417603301977, -0.09118756520635897, 0.21359619483685133, 0.08451430161251301, 0.2734576979223499, 0.0030803719553745886, 0.25399011324817344, 0.37887771543852355, -0.07479092151332724, -0.2754741081320034, -0.04860335940991406, 0.5129466676006241, 0.040784551126852746, -0.09331241456073362, 0.05511691330240226, -0.00046826935025115176, 0.10318190118353003, 0.06749394828226911], [-0.03665286126215308, -0.10627057285364609, 0.28550051483365224, -0.030381133441460807, -0.2570280021862973, 0.023046604901914715, 0.4461922549250753, -0.2433235674218891, 0.1949905295249967, -0.01345793974356727, 0.0035096890672637058, -0.06837290356832933, 0.12811136315507698, -0.17059679176817205, -0.18079462162820523, 0.016204687830311492, 0.06910097043716032, 0.2713080401528983, 0.028857488173875505, -0.07331209714481467, 0.3707961733304435, 0.042755369680017655, 0.08992412107341508, 0.10404935514828685], [-0.06512865980098197, 0.15750982427541674, -0.1210612995435825, 0.05014166074778268, 0.08775567648762178, 0.16287619709934972, -0.27920287527472554, 0.3348672231254337, -0.15159181581750664, -0.07665570160635807, -0.2397673771091465, 0.17706710212667498, -0.13673212692966027, 0.00839879998903322, 0.07853892975149779, 0.19161553007568335, 0.19957595439077308, -0.19195985300529492, 0.030918608292487052, 0.10993586718402522, 0.1468623473243971, 0.04463964307517575, -0.06761821860583327, 0.08057420007812921], [0.03526069930175244, -0.14636640792138778, -0.22786328353112628, 0.12649771924634323, -0.21754134491924204, 0.06236560032899299, -0.09681279771923347, 0.023455644685825946, -0.13091199981743212, -0.008243936887883847, 0.11185123410976246, -0.039756518442409496, -0.04088962448027872, 0.10873533878712112, 0.014795205564897615, -0.023468414587710797, 0.12692019208330632, 0.01787400763737604, -0.02656235240958159, -0.06383896876200544, -0.055183812028850865, -0.008783471203605151, -0.06329987346706924, 0.03764723943986994], [0.0025940008874648286, 0.02017517286047041, 0.15752684492922003, 0.12459744646859337, 0.09814807281180973, -0.1495480081179366, 0.205478582040444, -0.12738182547209068, 0.2301169710504648, 0.17807297937979535, 0.2373311545842336, -0.11237225272225815, 0.04714756953005452, 0.40487969659045947, -0.12960819332897197, 0.008507503004040119, 0.06168667544028449, 0.14268014461109696, 0.23346565651541357, 0.0032837541137363943, 0.21479972014034418, 0.048419096157725675, 0.12117701899878107, -0.026738970854551788], [-0.11515159186433127, 0.2737045448985786, 0.004833780439241343, -0.1331549971810325, -0.027410020915811694, -0.0057617059045194435, -0.12195404975711605, -0.1277618811663453, -0.08199063723252781, 0.051927850817743974, -0.14463368201579724, -0.12111707470760427, -0.15984517719212546, 0.1372661700361744, -0.018424100328150714, 0.1137824903336001, 0.004209151465075678, -0.06068012717398952, 0.024221899503902647, 0.0612323969828491, -0.08106349238611482, 0.06537381778199976, -0.10079633327220687, -0.051072514663853034], [0.007311959689192241, -0.1526380692979263, 0.12580370827972692, 0.22718356307905152, 0.07571242518398816, -0.014309670943020655, 0.1821583750663785, -0.0073837147820517346, 0.179641909518777, -0.07274253836041397, 0.2005891544190807, -0.07937578272018689, 0.13375698149235563, -0.019491885622973704, -0.05262842193721898, -0.31484176417446896, -0.0017947071889667606, 0.316093308808892, 0.081207004097874, 0.027052831852128284, 0.06289316731821472, 0.05885450677831938, 0.011186741507410204, 0.10832088964225599], [0.011834840322573977, -0.015229791530924124, -0.13523747292494231, -0.0010647960284701108, -0.027874311365859848, -0.08696239901504874, -0.02360141620236329, 0.036305861274935486, 0.08319169048156577, -0.027636605366103913, -0.06835287346272863, 0.11347506715882538, 0.01279757189267823, -0.06387896445349944, 0.02001536274517944, 0.06677688351826051, -0.11446574518831679, 0.060836973878608494, -0.028148720726535313, 0.05261093479003927, -0.03151930297417115, -0.06021068605147818, -0.0661395783941454, -0.06010961549150238], [0.06490562115241852, 0.1188791111911146, -0.03509057349233966, -0.11852535047309333, -0.02544465393451949, 0.0003569812819628548, -0.1066320421639756, -0.29538701421159425, -0.14818430730979418, -0.07385660708285705, -0.1159089123936932, 0.11001388307147839, 0.05917577283274353, -0.10965849122110069, 0.04889570529350385, 0.046859285405164555, -0.18221673736515948, 0.20332930593175536, 0.10216060151787368, 0.07475770946884162, 0.0058647803713272875, -0.018045567545567156, -0.04611767048893481, -0.13152820146729752], [0.12819463264584297, -0.18684555373735956, 0.2023360075887647, -0.10733769723036603, 0.03497791157525464, -0.0729454356467308, 0.1262755371807604, 0.07968855283109237, 0.258241316190035, -0.058232251133906655, 0.1884807975729713, 0.010818485353901118, 0.22018989793389765, 0.05796315015621187, -0.12496104203136811, -0.22231209386244297, 0.08240212165196893, -0.02806075867603134, 0.04233668179520209, -0.047132765565270206, -0.13175117379176407, -0.12309634005155706, 0.14413985791198555, -0.023611405384990493], [0.037742950894811625, -0.11926022080070339, 0.019566225191295004, -0.017287491722805328, -0.1086636638493997, -0.002488819616673568, 0.17177981036294382, 0.0601900440223262, -0.03104692799610886, 0.046641927755392464, -0.18473798446554288, 0.037673683824506914, 0.02845498596655964, 0.04934525860199297, 0.2666710644102943, -0.011577170871703216, -0.21710410234635827, 0.05384352690933961, 0.09317181745322815, 0.027005357048515193, -0.13433272544675823, 0.07468216678623817, -0.07921220201651089, -0.04198173000969643], [0.03696209340895824, -0.05223993870347631, -0.04099217861130397, 0.1074895755333166, 0.1964396544781402, 0.0913918046329285, -0.15434011312381457, -0.08877115206980438, 0.02942643368268055, 0.05846314681667036, -0.03999525444344269, -0.10001701541541066, 0.002389819229200912, -0.10505511917416757, -0.20026566792537787, 0.16896027092157362, 0.012988394254038308, 0.10902850015306664, 0.16588961953123227, 0.027567288728622786, -0.031416931900774395, -0.01572748308984394, -0.07123381530609386, 0.03696368546076203], [0.14284902606705407, -0.08064672566673423, -0.08917460802455167, 0.11159070886843017, -0.1841851868981101, 0.009960467785789935, -0.1352507323443263, -0.0008377181801151708, -0.16126755870091147, -0.04830242737883184, -0.07718387509118017, 0.10190287359088145, 0.1497891165884659, -0.02949552059992313, 0.030108424251504704, 0.09709371413343827, -0.15424622405876875, -0.03941249815153321, -0.06922551601668751, 0.1476738673012767, -0.01889900008681992, 0.01469558150693087, 0.008713474191738286, 0.15838031615333598]], "b2": [[0.23615571700898874], [-0.09856444283998726], [-0.14732291717478585], [-0.2487506129267112], [-0.10834804412247598], [0.43798636839795674], [0.052722634257281215], [-0.09833313613960651], [0.00835056043587366], [-0.1049123996379791], [0.003227035691363823], [0.014429245107044304], [-0.08843851113388612], [-0.01750050180104787], [-0.04793715408293697], [0.08652761479479804]], "W3": [[-0.11612171146271807, -0.09349461039265612, 0.4310384833414584, 0.40936089756497734, 0.2732895695341934, -0.13500640182288687, 0.0037379756721911423, 0.24070113770562765, 0.08636333099088839, 0.10051113449290416, 0.1273171693680327, -0.029339151323784972, 0.1835250424854342, 0.1000829199126425, 0.0613174784137847, -0.0064410259247249385], [-0.008692240036693295, 0.04048874140606397, 0.23612511395491947, 0.005939776399790571, 0.06496023061390363, 0.01642188067920313, -0.035929916254253735, -0.12844451540635637, 0.08301606424155579, 0.08528620711725521, 0.04778356339804106, -0.02475433824452555, -0.10446754495263624, -0.10576866411108471, 0.07110277769905456, 0.12746015444109818], [0.04431315405354928, 0.007845558132992106, -0.1616138447413822, -0.2264316602938602, -0.049055725567198845, 3.52493760681988e-05, -0.05883473446764026, -0.030627512668401986, -0.12286229097348998, 0.025775129417845863, 0.11684156469074122, 0.019175312894249143, -0.10587153225255232, 0.09964840356972723, -0.04422942022567931, -0.1385313193950445], [0.08144558501623886, -0.05705345334241296, -0.11387911639593293, -0.11341101856816621, 0.1351566526213328, 0.11092209359851618, -0.09223072081972387, -0.09942178620288077, -0.23516524783304107, 0.07336582028538298, -0.007701175942742935, 0.01937234446253564, 0.13480304582765043, -0.11926254776692194, -0.0008512802974737638, -0.15226951471722158], [-0.1815920573862223, 0.17403322923536932, 0.3911209092210862, 0.5203865598012459, 0.258384499702367, -0.2918944245753671, -0.19492191961871327, 0.40748345863929375, 0.0151256547662265, 0.4083980841340079, -0.2699108080904427, -0.1829345258572751, 0.15164235696262648, -0.05055530910823383, -0.15244761264011064, 0.01521399831257371], [0.09707660702936935, -0.046170992929045813, 0.19092091074978487, 0.29808057877393546, 0.08374113278262352, 0.02452400937354056, -0.22817941047676302, 0.3517837893904625, -0.00246230802733505, 0.02267857027343062, 0.055061087026104835, -0.10434942452204105, 0.03527886808334455, 0.039938423462598446, -0.06802664672054125, -0.013488656624685087], [0.1810853150970231, 0.08907121838456587, -0.10472291220537476, -0.2871570316667999, -0.19544932777079024, 0.33238691166218187, 0.046023952710686725, -0.024571449488740085, 0.08180656408548435, 0.023387210220083304, -0.0172462264797063, -0.01634732054006186, -0.06299929401344764, 0.06818877957181847, 0.0199410133725325, 0.1921108855366246], [0.02078493940893439, -0.12124840851796032, 0.05512074629066399, -0.027463588882111103, -0.09916012912095115, 0.2415996272837199, -0.02939206621661357, 0.14903876565517163, 0.05891027563290028, -0.08687674683214351, -0.2116817590450498, 0.09426357020447923, -0.08453355493218999, 0.14652097273277329, 0.09628135697257936, -0.12262089038310557], [0.15444787060772086, -0.11050008880807574, 0.07749132746435478, -0.19679181713130317, 0.03380132648142522, 0.04285353419603576, 0.13499161791673503, 0.0029267497371618, 0.028113462544812767, -0.00940073266312058, 0.009948339096927454, 0.0809251012991922, -0.20746963155399847, -0.13227727549748422, -0.08924730270581754, 0.051432134846934985], [-0.17820114058435169, -0.1266367984554349, 0.11758186028356243, -0.05007882249809989, -0.04611825363277137, -0.010600397138869394, 0.04680456769467248, -0.007975821878579469, -0.12660841256417807, 0.13510228869048882, -0.14420254623095527, -0.01822267344145065, -0.015764045300514767, 0.006440648111782672, -0.022066372262640327, -0.011103492573546606], [0.005896844239177488, -0.12676971857141703, 0.17734822966332933, -0.017386537557975538, 0.10774220245741964, -0.08114409537028307, 0.1427351723315774, 0.1386691115772212, -0.06179096174407798, 0.039716616034217715, 0.08839705208827703, 0.049559472851517884, -0.07222863494202175, 0.09873118756699929, -0.07782912567755636, -0.12780255692029233], [-0.052490753035388096, 0.27801667153549, 0.3762422602696915, 0.2583871366953425, 0.1593526986240429, -0.361918876685203, -0.14569987338719362, 0.09146191586227116, -0.03426666152796142, 0.2705201408419072, 0.02377151150407826, -0.05996453791532214, 0.25594767678379754, 0.1375657077172811, -0.09975206167581013, -0.20816918884243676]], "b3": [[-0.11470326589297272], [0.056350086918539634], [-0.015300415828841374], [-0.026619208836496693], [-0.1041301882950017], [0.05261098140725894], [0.3889905344427361], [0.10715318362356126], [0.17098201790996306], [0.004467353077107173], [0.026607019686677724], [-0.06978151580418376]], "W4": [[-0.2503633080320359, -0.020100555200189628, 0.027903225332490397, -0.03652363700790262, -0.1260602401835253, -0.10590126271724115, 0.23979974436520604, 0.26985125535300675, 0.008248819613669411, 0.010915560131419236, 0.038102455557084275, -0.16816510604770712], [0.04322126304768858, -0.0663321442186917, 0.24360396655540073, 0.04831149022851659, 0.045203233447885856, -0.023588253921547966, 0.03309213484606148, -0.14471318109231074, 0.08595533295858944, 0.04333520275262866, 0.01806098867171824, -0.05252148025610627], [-0.20251748188170532, -0.04556508049401532, -0.03376491112517794, -0.028034861527980348, -0.1588566464112207, 0.11524744574060258, 0.10839832600507866, 0.01997225615141536, 0.20383145318448265, 0.010899076021280462, 0.0149997005858194, -0.17251041608504278], [-0.08459947730431792, 0.06641774021252488, -0.03749649731285885, -0.17774119200925198, 0.1782751720306023, -0.10150780826812, -0.007160841919799649, -0.05650535251330507, -0.26949919478411505, -0.17950121342332848, 0.23166488791018724, -0.11227209784892804], [0.21146517444176444, 0.0764381579598315, -0.045403272087287436, 0.1583053789079986, 0.35418153497425187, 0.20501040597009354, 0.004367216605603452, -0.00906159694909761, 0.06238365736478589, 0.14533278040284886, 0.11857008786346297, 0.20969437028134097], [0.03155611731814394, 0.10925812973137541, -0.10472486913275314, 0.02893137937449795, -0.14267749276256192, -0.04810348389319816, 0.09852899947358416, 0.12277469820095792, -0.04175036001043075, -0.06505370152634737, 0.0033130132153048365, -0.057870264369333506], [0.5181606756929042, 0.14223976165099836, 0.028655904804651668, 0.0707041467298405, 0.6560284403776339, 0.4228917278188609, -0.2539404771878986, 0.04470641515933698, -0.08417052060896182, -0.011094532683776833, 0.18041001619977384, 0.37630760584520984], [-0.2337823447145404, 0.15758765079775103, -0.0968918051465765, 0.04654791742848785, -0.4051322156104271, 0.08000745577378111, 0.45315616672400544, 0.04177584135264884, 0.1496556179442191, 0.021639113975287, -0.0018109138267256846, -0.4149114456849221]], "b4": [[0.38955069317365554], [-0.030461664896035034], [0.2792677674602244], [-0.046868049912689946], [0.09631180521169967], [0.11025366010242856], [0.23026903406392205], [0.6690434149255591]], "W5": [[-0.09733197770238015, -0.09755622104280623, -0.05688064017501605, 0.17412217710634412, -0.013110042697431474, 0.15190848088155623, 0.019742890892391386, -0.09275167269784229], [-0.06198978000554449, -0.10485578060473302, 0.06470095048124115, -0.040939306741451936, 0.009549394938362894, -0.020264576434990515, -0.013110266793307129, 0.04385921719018684], [-0.5098352389776838, -0.02159069456865335, -0.37257565411712174, -0.012549936862402201, 0.4892624090192746, -0.17261892390997138, 1.0271012269543796, -0.9198021507921352], [-0.010511974356080768, -0.03764259095493564, -0.1750769744203309, -0.010504385824682157, 0.14959837422786157, -0.05509380023731258, 0.1405807453521733, -0.13935657212523217]], "b5": [[-0.0405709029412229], [-0.051232936523261885], [0.968951515186692], [0.15583926938472506]], "W6": [[0.04811074213412008, -0.02471511159658439, -1.7903887438898058, -0.3000235458761566]], "b6": [[4.054214773568136]]}